svm_type c_svc
kernel_type rbf
gamma 16
nr_class 2
total_sv 281
rho 0.07293
label 1 -1
probA -4.84639
probB -0.0390298
nr_sv 133 148
SV
1.276461585082137 1:0 2:0 3:0.0098156572 4:0.025616471 5:0.0088580321 6:0.0086186258 7:0.00047881254 8:0 9:0.00071821882 10:0.039502035 11:0.016758439 12:0.0038305004 13:0.0069427819 14:0.0081398133 15:0 16:0.00095762509 17:0.037826191 18:0.022743596 19:0.0067033756 20:0.0098156572 21:0.0023940627 22:0 23:0.005266938 24:0.031841034 25:0.024658846 26:0.010533876 27:0.0045487192 28:0.0016758439 29:0 30:0.012449126 31:0.02250419 32:0.033995691 33:0.016279627 34:0 35:0 36:0 37:0.015322001 38:0.018194877 39:0.040699066 40:0.00023940627 41:0 42:0 43:0 44:0.0071821882 45:0.028968159 46:0.022264783 47:0.01220972 48:0.0011970314 49:0 50:0 51:0.012688532 52:0.033516878 53:0.01220972 54:0.013646158 55:0.00047881254 56:0 57:0 58:0.021067752 59:0.029446972 60:0.0057457505 61:0.0081398133 62:0.01412497 63:0.00023940627 64:0.00071821882 65:0.02250419 66:0.017476658 67:0.0033516878 68:0.010773282 69:0.017716064 70:0.0021546565 71:0.00023940627 72:0.033277472 73:0.013646158 74:0.0040699066 75:0.0050275317 76:0.03016519 77:0.0035910941 78:0.00095762509 79:0.042614316 80:0.00047881254 81:0 82:0.0035910941 83:0.024898252 84:0.013167345 85:0.0071821882 86:0.025137659 87:0.00071821882 88:0 89:0.00047881254 90:0.029686378 91:0.011012689 92:0 93:0 94:0 95:0 96:0 97:0.0014364376 98:0.0028728753 98:0.0038113387 99:0.066698428 100:0.034302049 101:0 102:0 103:0.0011910434 104:0.048118152 105:0.084802287 106:0 107:0 108:0.0080990948 109:0.029299667 110:0.097903764 111:0 112:0 113:0.00071462601 114:0.028346832 115:0.092424964 116:0.0011910434 117:0 118:0.002858504 119:0.049547404 120:0.066936636 121:0 122:0 123:0.002143878 124:0.09313959 125:0.033587423 126:0 127:0 128:0.0011910434 129:0.088613626 130:0.059790376 131:0.00047641734 132:0 133:0.00071462601 134:0.035016675 135:0.06455455 136:0.0045259647 137:0 138:0 139:0 140:0 141:0 142:0 
1.105923322911373 1:0 2:0 3:0.0045928281 4:0.025437202 5:0.0044161809 6:0 7:0 8:0 9:0 10:0.0094506271 11:0.029146794 12:0.0036212683 13:0 14:0 15:0 16:0.0016781487 17:0.021021021 18:0.028793499 19:0.0175764 20:0 21:0 22:0 23:0.0046811517 24:0.018812931 25:0.025172231 26:0.03003003 27:0 28:0 29:0 30:0.011393747 31:0.016869811 32:0.024200671 33:0.032944709 34:0.00070658894 35:0 36:0.0013248543 37:0.014220102 38:0.016251546 39:0.023317435 40:0.034799505 41:0.0034446211 42:0 43:0.0037979156 44:0.014308426 45:0.02172761 46:0.01660484 47:0.038774068 48:0.00044161809 49:0 50:0.0094506271 51:0.030118354 52:0.0065359477 53:0.013690161 54:0.040628864 55:0 56:0 57:0.019431196 58:0.035947712 59:0 60:0.0094506271 61:0.033651298 62:0.0083024201 63:0 64:0.017841371 65:0.038155803 66:0.0037979156 67:0.0087440382 68:0.018194665 69:0.020579403 70:0 71:0.01342519 72:0.035859389 73:0.0032679739 74:0.001148207 75:0.011658718 76:0.032679739 77:0.0016781487 78:0.0049461226 79:0.010333863 80:0.0025613849 81:0.0032679739 82:0.00088323618 83:0.019166225 84:0.01978449 85:0 86:0 87:0.0095389507 88:0.0015015015 89:0 90:0.0035329447 91:0.010687158 92:0 93:0 94:0 95:0 96:0 97:0 98:0 98:0 99:0.0026483051 100:0.056055791 101:0 102:0 103:0 104:0.063206215 105:0.049170198 106:0 107:0 108:0 109:0.096751412 110:0.042549435 111:0 112:0 113:0 114:0.10293079 115:0.053142655 116:0 117:0 118:0 119:0.10655014 120:0.060028249 121:0 122:0 123:0 124:0.10752119 125:0.070356638 126:0.0027365819 127:0 128:0 129:0.096398305 130:0.049346751 131:0.0022069209 132:0 133:0 134:0.024717514 135:0.0011475989 136:0.01200565 137:0.00052966102 138:0 139:0 140:0 141:0 142:0 
2 1:0.021879722 2:0.01535207 3:0.018817367 4:0.0056814748 5:0.0011080891 6:0 7:0 8:0.0033041201 9:0.026795608 10:0.037030321 11:0.033685907 12:0.015714717 13:0.0083811826 14:0 15:0 16:0.00020147074 17:0.0059030926 18:0.019885162 19:0.035579732 20:0.028628992 21:0.0090863302 22:0 23:0 24:0 25:0 26:0.0041905913 27:0.023108693 28:0.04144253 29:0 30:0 31:0 32:0 33:0 34:0 35:0 36:0.00062455928 37:0 38:0 39:0 40:0 41:0 42:0 43:0.01783016 44:0.0047144152 45:0 46:0 47:0 48:0 49:0 50:0.013458245 51:0.015896041 52:0.0050367684 53:0.0058829455 54:0.0032033847 55:0 56:0 57:0.024518989 58:0.021678251 59:0.016903395 60:0.0092676539 61:0.022947517 62:0.0077767704 63:0 64:0.023672812 65:0.036748262 66:0.029777375 67:0.024841342 68:0.017366777 69:0.024861489 70:0.0045733857 71:0.011342802 72:0.018495014 73:0.035599879 74:0.037070615 75:0.029273698 76:0.024075753 77:0.013740304 78:0 79:0 80:0.0014304422 81:0.01500957 82:0.040535912 83:0.03731238 84:0.022282663 85:0 86:0 87:0 88:0 89:0.0011282361 90:0.0047547094 91:0.020590309 92:0 93:0 94:0 95:0 96:0 97:0 98:0 98:0.032902889 99:0.040934538 100:0.017690528 101:0.028976637 102:4.4786146e-05 103:0 104:0.06705979 105:0.032932746 106:0.035127267 107:0 108:0 109:0.048757184 110:0.055997611 111:0.0033291035 112:0 113:0 114:0.060028365 115:0.021661566 116:0 117:0 118:0.00029857431 119:0.041785474 120:0.084168097 121:0 122:0 123:0.0040606106 124:0.12041502 125:0.057654699 126:0.0014032992 127:0 128:0 129:0.090826304 130:0.093991192 131:0.00022393073 132:0 133:0 134:0.012540121 135:0.047189669 136:0 137:0 138:0 139:0 140:0 141:0 142:0 
0.8404087019555663 1:0.0033143939 2:0.0063920455 3:0.0023674242 4:0.001657197 5:0.0014204545 6:0.0049715909 7:0 8:0.0082859848 9:0.015151515 10:0.016335227 11:0.01467803 12:0.012310606 13:0.015151515 14:0.0047348485 15:0.0075757576 16:0.014204545 17:0.016098485 18:0.019176136 19:0.015625 20:0.013257576 21:0.010890152 22:0.0087594697 23:0.013731061 24:0.015388258 25:0.016335227 26:0.01657197 27:0.0014204545 28:0.015625 29:0.011837121 30:0.015151515 31:0.015151515 32:0.015151515 33:0.015151515 34:0.0075757576 35:0.011126894 36:0.011600379 37:0.014914773 38:0.015388258 39:0.015151515 40:0.015151515 41:0.015861742 42:0.0014204545 43:0.0075757576 44:0.01467803 45:0.015625 46:0.015388258 47:0.015861742 48:0.011126894 49:0 50:0.009469697 51:0.014204545 52:0.015625 53:0.015388258 54:0.015151515 55:0.0085227273 56:0 57:0.0044981061 58:0.014441288 59:0.01657197 60:0.016098485 61:0.014204545 62:0.0099431818 63:0 64:0 65:0.012547348 66:0.016335227 67:0.010179924 68:0.018229167 69:0.0097064394 70:0 71:0 72:0.010179924 73:0.015861742 74:0.0082859848 75:0.01657197 76:0.011837121 77:0 78:0 79:0.013494318 80:0.017518939 81:0.0066287879 82:0.015151515 83:0.0073390152 84:0 85:0 86:0.012784091 87:0.01467803 88:0.0023674242 89:0.014441288 90:0.0097064394 91:0 92:0 93:0.010416667 94:0.011600379 95:0.0018939394 96:0.013967803 97:0.011837121 98:0 98:0.0021261517 99:0.037798252 100:0.036853296 101:0.0016536735 102:0 103:0.0028348689 104:0.10347271 105:0.046066619 106:0.00023623907 107:0 108:0 109:0.096385542 110:0.051263879 111:0.0051972596 112:0 113:0 114:0.091424522 115:0.046775337 116:0.0061422159 117:0 118:0.0035435861 119:0.078903851 120:0.049610206 121:0 122:0 123:0 124:0.054098748 125:0.059059768 126:0.00047247815 127:0 128:0.0021261517 129:0.079376329 130:0.025041342 131:0.0016536735 132:0 133:0 134:0.060477203 135:0.022442712 136:0.0028348689 137:0 138:0 139:0.023151429 140:0.0077958894 141:0.0011811954 142:0 
2 1:0 2:0.0052933392 3:0.0086016762 4:0.0057344508 5:0.0092633436 6:0.0037494486 7:0 8:0.006616674 9:0.015880018 10:0.017644464 11:0.012351125 12:0.012792236 13:0.015880018 14:0.0013233348 15:0.0059550066 16:0.016321129 17:0.012571681 18:0.016762241 19:0.016982797 20:0.013453904 21:0.012571681 22:0.0068372298 23:0.016541685 24:0.015880018 25:0.01786502 26:0.014556683 27:0.0086016762 28:0.014115571 29:0.0074988972 30:0.015880018 31:0.012351125 32:0.015880018 33:0.01521835 34:0.012792236 35:0.0002205558 36:0.0094838994 37:0.014115571 38:0.01367446 39:0.018747243 40:0.016541685 41:0.008822232 42:0 43:0.0081605646 44:0.015659462 45:0.013233348 46:0.015659462 47:0.014997794 48:0.010366123 49:0 50:0.0072783414 51:0.013233348 52:0.014777239 53:0.016321129 54:0.015880018 55:0.012351125 56:0 57:0.0046316718 58:0.011910013 59:0.018306131 60:0.014336127 61:0.014997794 62:0.0090427878 63:0 64:0.0004411116 65:0.012571681 66:0.018085576 67:0.012351125 68:0.01521835 69:0.009925011 70:0 71:0 72:0.01102779 73:0.018967799 74:0.012351125 75:0.014336127 76:0.014997794 77:0 78:0 79:0.012571681 80:0.014336127 81:0.0072783414 82:0.014556683 83:0.011468902 84:0 85:0 86:0.012792236 87:0.017644464 88:0.0083811204 89:0.017423908 90:0.0090427878 91:0 92:0 93:0.0081605646 94:0.0086016762 95:0.0030877812 96:0.009925011 97:0.0079400088 98:0 98:0 99:0.041546961 100:0.038674033 101:0.0053038674 102:0 103:0.004640884 104:0.11314917 105:0.037348066 106:0.00066298343 107:0 108:0 109:0.07801105 110:0.056353591 111:0.0099447514 112:0 113:0 114:0.083756906 115:0.045745856 116:0.0028729282 117:0 118:0.0011049724 119:0.082430939 120:0.047071823 121:0.0017679558 122:0 123:0.0019889503 124:0.033149171 125:0.076243094 126:0.0057458564 127:0 128:0.0033149171 129:0.049723757 130:0.05679558 131:0.0017679558 132:0 133:0.0050828729 134:0.046187845 135:0.04839779 136:0.00044198895 137:0 138:0.0008839779 139:0.0077348066 140:0.012154696 141:0 142:0 
0.3522704416298149 1:0 2:0 3:0.00029976019 4:0.01628697 5:0.0021982414 6:0 7:0 8:0 9:0.0020983213 10:0.010191847 11:0.022482014 12:0.0075939249 13:0.00019984013 14:0 15:0.0011990408 16:0.021582734 17:0.021782574 18:0.016686651 19:0.014288569 20:0.011790568 21:0 22:0.003097522 23:0.027877698 24:0.020683453 25:0.013289369 26:0.01508793 27:0.016886491 28:0.0038968825 29:0.012989608 30:0.022182254 31:0.021482814 32:0.011890488 33:0.013389289 34:0.01618705 35:0.01518785 36:0.014188649 37:0.022482014 38:0.017486011 39:0.01508793 40:0.014588329 41:0.0095923261 42:0.022981615 43:0.017785771 44:0.020083933 45:0.018385292 46:0.012190248 47:0.01528777 48:0.0064948042 49:0.016986411 50:0.0050959233 51:0.018685052 52:0.019284572 53:0.010591527 54:0.01638689 55:0.0028976819 56:0.016986411 57:0 58:0.010591527 59:0.019284572 60:0.0089928058 61:0.01608713 62:0.00059952038 63:0.0073940847 64:0 65:0.010491607 66:0.01578737 67:0.0067945643 68:0.014088729 69:0.003097522 70:0 71:0 72:0.0092925659 73:0.018385292 74:0.006294964 75:0.013589129 76:0.0071942446 77:0 78:0 79:0.01618705 80:0.013589129 81:0.0086930456 82:0.019984013 83:0.0059952038 84:0 85:0 86:0.0092925659 87:0.01578737 88:0.010891287 89:0.020583533 90:0.0022981615 91:0 92:0 93:0.0037969624 94:0.010991207 95:0.013189448 96:0.0043964828 97:0 98:0 98:0 99:0.00099522293 100:0.034036624 101:0.0062699045 102:0.00079617834 103:0 104:0.083399682 105:0.054737261 106:0 107:0 108:0 109:0.10340366 110:0.077726911 111:0 112:0 113:0 114:0.12340764 115:0.064191879 116:0.00049761146 117:0 118:0 119:0.11156449 120:0.041799363 121:0 122:0 123:0 124:0.026273885 125:0.060011943 126:0.0012937898 127:0 128:0 129:0.02906051 130:0.052746815 131:0.015824045 132:0 133:0 134:0.05772293 135:0.040406051 136:9.9522293e-05 137:0 138:0 139:0.012440287 140:0.0012937898 141:0 142:0 
2 1:0.00025920166 2:0.0082944531 3:0.0036288232 4:0.0051840332 5:0.0051840332 6:0.0090720581 7:0.00051840332 8:0.0082944531 9:0.0155521 10:0.014774495 11:0.016588906 12:0.016588906 13:0.015292898 14:0.0025920166 15:0.013478486 16:0.016588906 17:0.016588906 18:0.0155521 19:0.016588906 20:0.017366511 21:0.0028512182 22:0.011404873 23:0.017107309 24:0.015811301 25:0.016329705 26:0.017366511 27:0.016588906 28:0.0054432348 29:0.00077760498 30:0.01399689 31:0.014774495 32:0.016329705 33:0.015292898 34:0.0075168481 35:0.00051840332 36:0 37:0.015292898 38:0.017625713 39:0.016588906 40:0.016588906 41:0.0088128564 42:0 43:0 44:0.0155521 45:0.014774495 46:0.0155521 47:0.015292898 48:0.011664075 49:0 50:0.0010368066 51:0.015811301 52:0.015811301 53:0.0155521 54:0.016329705 55:0.010108865 56:0 57:0.00051840332 58:0.013478486 59:0.017107309 60:0.016070503 61:0.014774495 62:0.010368066 63:0 64:0 65:0.0155521 66:0.01399689 67:0.016588906 68:0.017366511 69:0.014256091 70:0 71:0 72:0.014515293 73:0.019440124 74:0.013219285 75:0.015292898 76:0.0054432348 77:0 78:0.0025920166 79:0.016070503 80:0.013478486 81:0.0059616382 82:0.016848108 83:0.014515293 84:0 85:0.00077760498 86:0.013219285 87:0.0085536547 88:0.0051840332 89:0.018144116 90:0.0085536547 91:0 92:0.0020736133 93:0.011923276 94:0.010368066 95:0.0028512182 96:0.010627268 97:0.0077760498 98:0 98:0.0054460581 99:0.060943983 100:0.024377593 101:0 102:0 103:0.0005186722 104:0.08843361 105:0.071576763 106:0.0010373444 107:0 108:0.0028526971 109:0.064315353 110:0.069502075 111:0.0012966805 112:0 113:0.0015560166 114:0.056794606 115:0.066130705 116:0.0015560166 117:0 118:0 119:0.040197095 120:0.082728216 121:0.0005186722 122:0 123:0.0033713693 124:0.032676349 125:0.086618257 126:0 127:0 128:0.0031120332 129:0.035010373 130:0.074429461 131:0 132:0 133:0.0041493776 134:0.049273859 135:0.043568465 136:0 137:0 138:0 139:0.016338174 140:0.011670124 141:0 142:0 
1.04754854403499 1:0 2:0 3:0 4:0 5:0 6:0 7:0 8:0 9:0 10:0 11:0 12:0 13:0 14:0 15:0 16:0 17:0 18:0 19:0 20:0 21:0 22:0 23:0 24:0 25:0 26:0 27:0 28:0 29:0 30:0 31:0.0047115606 32:0.095878342 33:0 34:0 35:0 36:0 37:0 38:0.062859113 39:0.2104114 40:0.00095763426 41:0 42:0 43:0 44:0 45:0.047000689 46:0.18643224 47:0 48:0 49:0 50:7.6610741e-05 51:7.6610741e-05 52:0.056960086 53:0.12675247 54:0 55:0 56:0 57:0 58:0 59:0.014287903 60:0.15329809 61:0 62:0 63:0 64:0 65:0 66:0.0042135907 67:0.036083659 68:0 69:0 70:0 71:0 72:0 73:0 74:0 75:0 76:0 77:0 78:0 79:0 80:0 81:0 82:0 83:0 84:0 85:0 86:0 87:0 88:0 89:0 90:0 91:0 92:0 93:0 94:0 95:0 96:0 97:0 98:0 98:0 99:0 100:0 101:0 102:0 103:0 104:0 105:0 106:0 107:0 108:0 109:0.070914106 110:0.029691211 111:0 112:0 113:0 114:0.2808597 115:0.15343652 116:0 117:0 118:0 119:0.054593518 120:0.25883074 121:0 122:0 123:0 124:0.13408934 125:0.017584859 126:0 127:0 128:0 129:0 130:0 131:0 132:0 133:0 134:0 135:0 136:0 137:0 138:0 139:0 140:0 141:0 142:0 
1.82442513028289 1:0 2:0 3:0 4:0.007298469 5:0 6:0 7:0 8:0.011194644 9:0 10:0.0041705537 11:0.044229819 12:0.0059265763 13:0 14:0.0072435933 15:0.035614334 16:0.012840915 17:0.00043900565 18:0.033035175 19:0.00038412995 20:0.01163365 21:0.025517204 22:0.00010975141 23:0.015804203 24:0.038632497 25:0.044559074 26:0.034242441 27:0.012127531 28:0 29:0 30:0 31:0.028535367 32:0.040937277 33:0.018822367 34:0 35:0 36:0 37:0 38:0.018383362 39:0.035833836 40:0.0057619492 41:0 42:0 43:0 44:0 45:0.021456401 46:0.035394831 47:0.0098227515 48:0 49:0 50:0 51:0 52:0.025736706 53:0.031114526 54:0.014542062 55:0 56:0 57:0 58:0 59:0.027492729 60:0.030071887 61:0.017450475 62:0 63:0 64:0 65:0 66:0.024255062 67:0.026285463 68:0.015255446 69:0 70:0 71:0 72:0 73:0.022828294 74:0.019755254 75:0.010371509 76:0 77:0 78:0 79:0 80:0.024145311 81:0.023212424 82:0.011743401 83:0 84:0 85:0 86:0 87:0.024968446 88:0.023047797 89:0.012895791 90:0 91:0 92:0 93:0 94:0.022553915 95:0.019700379 96:0.012621413 97:0 98:0 98:0.00038268095 99:0 100:0.044445659 101:0 102:0 103:0.063087689 104:0.045757708 105:0.10294118 106:0 107:0 108:0 109:0.00098403674 110:0.16991034 111:0 112:0 113:0 114:0.00049201837 115:0.10343319 116:0 117:0 118:0 119:0 120:0.11737372 121:0 122:0 123:0 124:0.020391428 125:0.095888913 126:0 127:0 128:0 129:0.043625629 130:0.049311174 131:0 132:0 133:0 134:0.080909687 135:0.017986005 136:0 137:0 138:0.0012027116 139:0.039088126 140:0.0027881041 141:0 142:0 
0.6493458265685973 1:0 2:0 3:0.003012979 4:0.031674907 5:0.012051916 6:0 7:0 8:0 9:0 10:0.0033220025 11:0.0381644 12:0.014060569 13:0 14:0 15:0 16:0 17:0 18:0.010429543 19:0.02263597 20:0 21:0 22:0.0088071693 23:0.014910383 24:0.0076483313 25:0.063658838 26:0.037700865 27:0 28:0 29:0.012515451 30:0.016532756 31:0.03105686 32:0.041795426 33:0.029511743 34:0 35:0 36:0.019159456 37:0.0099660074 38:0.0069530284 39:0.032988257 40:0.024412855 41:0 42:0 43:0 44:0 45:0.00038627936 46:0.031365884 47:0.041254635 48:0 49:0 50:0 51:0 52:0 53:0.022404203 54:0.044962917 55:0 56:0 57:0 58:0 59:0 60:0.037623609 61:0.029666255 62:0 63:0 64:0 65:0 66:0.00061804697 67:0.057555624 68:0.011588381 69:0 70:0 71:0 72:0 73:0.0055624227 74:0.047280593 75:0.0032447466 76:0 77:0 78:0 79:0 80:0.011742892 81:0.057169345 82:0.00092707046 83:0 84:0 85:0 86:0 87:0.029279975 88:0.03012979 89:0 90:0 91:0 92:0 93:0 94:0.027271323 95:0.01591471 96:0.0010815822 97:0 98:0 98:0 99:7.5677312e-05 100:0.086272136 101:0 102:0 103:0 104:0.052747086 105:0.023838353 106:0.0023459967 107:0 108:0.048811866 109:0.095958832 110:0.049795671 111:0.049795671 112:0 113:0.028833056 114:0.015892236 115:0.097926442 116:0.0016649009 117:0 118:0 119:0.068563645 120:0.041925231 121:0 122:0 123:0 124:0.068336613 125:0.043287422 126:0 127:0 128:0 129:0.050476767 130:0.051990313 131:0.0006054185 132:0 133:0 134:0.049568639 135:0.046541547 136:0 137:0 138:0 139:0.013546239 140:0.011200242 141:0 142:0 
1.117407423072413 1:0 2:0 3:0.013659194 4:0.021683205 5:0 6:0 7:0 8:0 9:0.0018375597 10:0.012127894 11:0.018681857 12:0.0059414431 13:0 14:0 15:0.0055739312 16:0.015741762 17:0.021866961 18:0.025113316 19:0.028175916 20:0.015251746 21:0 22:0.015435502 23:0.0017150557 24:0.025174568 25:0.031973539 26:0.019723141 27:0.015803014 28:0.015803014 29:0 30:0 31:0.016538037 32:0.028237168 33:0.010351586 34:0 35:0.0042876393 36:0 37:0 38:0.019294377 39:0.033076075 40:0.018375597 41:0 42:0 43:0 44:0 45:0.021621953 46:0.034484871 47:0.019478133 48:0 49:0 50:0 51:0.00061251991 52:0.030319735 53:0.035587407 54:0.024378292 55:0 56:0 57:0 58:0 59:0.0276859 60:0.034178611 61:0.021376945 62:0 63:0 64:0 65:0 66:0.025603332 67:0.029155948 68:0.016476785 69:0 70:0 71:0 72:0.00036751194 73:0.026950876 74:0.027318388 75:0.01169913 76:0 77:0 78:0 79:0.0020213157 80:0.031789783 81:0.033504839 82:0.015864266 83:0 84:0 85:0 86:0 87:0.026950876 88:0.027502144 89:0.011209114 90:0 91:0 92:0 93:0 94:0.0071052309 95:0.013169178 96:0.0021438197 97:0 98:0 98:0 99:0.028818964 100:0.020034896 101:0 102:0 103:0 104:0.11750196 105:0.054268696 106:0.0063173094 107:0 108:0 109:0.093977498 110:0.015823356 111:0.033752482 112:0.011371157 113:0 114:0.11341075 115:0.0024667589 116:0 117:0 118:0 119:0.14487696 120:0.00048131881 121:0 122:0 123:0 124:0.090848926 125:0.032669514 126:0 127:0 128:0 129:0.029781602 130:0.090969256 131:0 132:0 133:0 134:0.014439564 135:0.09325552 136:0.00030082426 137:0 138:0 139:0.00042115396 140:0.0042115396 141:0 142:0 
0.9388812347645147 1:0 2:0 3:0.0035760528 4:0.036130464 5:0.0030828041 6:0 7:0 8:0 9:0 10:0.013132746 11:0.01510574 12:0 13:0 14:0 15:0 16:0 17:0.044392379 18:0.039953141 19:0 20:0 21:0 22:0 23:0 24:0.056846908 25:0.058943215 26:0.002219619 27:0 28:0 29:0 30:0.00024662433 31:0.041124607 32:0.035698872 33:0.019791602 34:0.014920772 35:0.012701153 36:0 37:0.0039459893 38:0.053085887 39:0.019483322 40:0 41:0 42:0 43:0 44:0.0040076454 45:0.056723596 46:0.024909057 47:0.00018496825 48:0 49:0 50:0 51:6.1656082e-05 52:0.032986004 53:0.033972501 54:0.00067821691 55:0.00036993649 56:0 57:0 58:0 59:0.018496825 60:0.031197978 61:0.00012331216 62:0.017387015 63:0.0027745237 64:0 65:0 66:0.0079536346 67:0.037240274 68:0 69:0.0028978359 70:0.018681793 71:0 72:0 73:0.010419878 74:0.029409951 75:0 76:0.00086318515 77:0.026327147 78:0 79:0.014859116 80:0.026450459 81:0.0063505765 82:6.1656082e-05 83:0 84:0.023429311 85:0 86:0.03415747 87:0.0018496825 88:0.010419878 89:0.0032061163 90:0 91:0.0069671373 92:0.022381158 93:0.013441026 94:0 95:0.0015414021 96:0.0028361798 97:0 98:0 98:0 99:0.047070482 100:0.0085470085 101:0 102:0 103:0.019385606 104:0.034745448 105:0.072773442 106:0.011581816 107:0 108:0.025145547 109:0.039514431 110:0.074259879 111:0.06174904 112:0.0022915892 113:0.021801065 114:0.04168215 115:0.063359346 116:0 117:0 118:0.0056360709 119:0.042487303 120:0.070172179 121:0 122:0 123:0.00030967422 124:0.060324539 125:0.056236839 126:0 127:0 128:0.00012386969 129:0.054316859 130:0.061315496 131:0 132:0 133:0 134:0.03796606 135:0.05958132 136:0 137:0 138:0 139:0.00086708782 140:0.026755853 141:0 142:0 
0.6704626154757893 1:0 2:0.00033088479 3:0.028191384 4:0.023426643 5:0 6:0 7:0 8:0 9:0 10:0.023823705 11:0.010058897 12:0 13:0 14:0 15:0 16:0.00066176957 17:0.029713454 18:0.035603203 19:0.00013235391 20:0 21:0 22:0 23:0.00052941566 24:0.031632586 25:0.031566409 26:0.019853087 27:0.01131626 28:0.013897161 29:0.0004632387 30:0.0099265436 31:0.02891933 32:0.031566409 33:0.0025809013 34:0.010919198 35:0.016875124 36:0.0060882801 37:0.013566276 38:0.029713454 39:0.032162001 40:0 41:0 42:0 43:0.012110383 44:0.0094633049 45:0.028588446 46:0.029117861 47:0 48:0 49:0 50:0.0089338892 51:0.0038382635 52:0.023823705 53:0.042353253 54:0.018463371 55:0.00099265436 56:0 57:0 58:0 59:0.016279531 60:0.031566409 61:0.020581034 62:0.025544305 63:0.0023823705 64:0 65:0 66:0.010058897 67:0.025809013 68:0 69:0.015353054 70:0.0086691814 71:0 72:0 73:0.014492754 74:0.016213355 75:0 76:0.015088346 77:0.018000132 78:0 79:0.009198597 80:0.028853153 81:0.012441268 82:0 83:0.00304414 84:0.021044272 85:0.0019853087 86:0.027264906 87:0.0037720866 88:0.014492754 89:6.6176957e-05 90:0 91:0.0020514857 92:0.019588379 93:0.013500099 94:0 95:0.0014558931 96:0 97:0 98:0 98:0 99:0.0024378995 100:0.070896752 101:0 102:0 103:0 104:0.097845424 105:0.0023061211 106:0 107:0 108:0.075574883 109:0.076826777 110:0.02470844 111:0.0086314818 112:0.0015813402 113:0 114:0.081504909 115:0.028530013 116:0.021677538 117:0.00059300257 118:0 119:0.074652435 120:0.06786585 121:0.019107861 122:0.00039533505 123:0 124:0.063517164 125:0.055808131 126:0 127:0 128:0 129:0.055808131 130:0.058180141 131:0.00085655927 132:0 133:0 134:0.054556236 135:0.025828556 136:0 137:0 138:0 139:0.03030902 140:0 141:0 142:0 
2 1:0 2:0.01850506 3:0.014927042 4:0 5:0 6:0 7:0 8:0 9:0.026779225 10:0.02090904 11:0 12:0 13:0 14:0 15:0 16:0 17:0.022586236 18:0.018393246 19:0.015150668 20:0.00083859786 21:0 22:0 23:0.0018449153 24:0.045004752 25:0.033655728 26:0.020629507 27:0.0063174372 28:0 29:0 30:0.0046402415 31:0.040084978 32:0.029295019 33:0.021859451 34:0.010174987 35:0 36:0 37:0.005646559 38:0.017610555 39:0.02895958 40:0.024319338 41:0.018728686 42:0 43:0 44:0.011181305 45:0.006932409 46:0.0061497177 47:0.038407782 48:0.019008218 49:0 50:0.00011181305 51:0.018560966 52:0.00011181305 53:0.0098954548 54:0.059540448 55:0.015038855 56:0.00044725219 57:0.008106446 58:0.016492425 59:0.0093922961 60:0.037177839 61:0.028735953 62:0.019958629 63:0.0019008218 64:0.00027953262 65:0.027785543 66:0.019008218 67:0.00067087829 68:0.0011181305 69:0.025828814 70:0.0015094762 71:0.0071560351 72:0.01833734 73:0 74:0 75:0 76:0.02348074 77:0.00095041091 78:0.023368927 79:0.010119081 80:0 81:0 82:0 83:0.018393246 84:0.0017331023 85:0.029071393 86:0.002348074 87:0 88:0 89:0 90:0.018113714 91:0.0017331023 92:0.010734053 93:0 94:0 95:0 96:0 97:0.0036339241 98:0.00061497177 98:0 99:0.064826199 100:0.0021795015 101:0 102:0 103:0 104:0.06784397 105:0.036325025 106:0.00061473119 107:0 108:0 109:0.093047949 110:0.071755896 111:0.014865318 112:0 113:0.0036883872 114:0.049681457 115:0.064993853 116:0.027942327 117:0 118:0.033698446 119:0.0057561194 120:0.10260422 121:0.024812786 122:0 123:0.011512239 124:0.037666257 125:0.11042808 126:0.0056443501 127:0 128:0 129:0.050240304 130:0.035989717 131:0 132:0 133:0 134:0.051525651 135:0.029674751 136:0 137:0 138:0 139:0.0023471555 140:0.00033530792 141:0 142:0 
1.970745403521085 1:0 2:0 3:0.0015373972 4:0.026366362 5:0.020601122 6:0 7:0 8:0 9:0 10:0 11:0.0096856023 12:0.023599047 13:0.001614267 14:0 15:0 16:0 17:0.00030747944 18:0.024675225 19:0.034898916 20:0.011222999 21:0 22:0 23:0 24:0 25:0.025290184 26:0.034514567 27:0.014297794 28:0 29:0 30:0 31:0.010531171 32:0.035975094 33:0.031439772 34:0.01621954 35:0 36:0.0030747944 37:0.020601122 38:0.03274656 39:0.018833116 40:0.03266969 41:0.014682143 42:0 43:0.020677992 44:0.040433546 45:0.015988931 46:0.027596279 47:0.03274656 48:0.01637328 49:0 50:0.017218848 51:0.022215389 52:0.02751941 53:0.031747252 54:0.03259282 55:0.0093781228 56:0 57:0 58:0 59:0 60:0.016065801 61:0.023752787 62:7.6869859e-05 63:0 64:0 65:0 66:0 67:0.019678684 68:0.021446691 69:0 70:0 71:0 72:0 73:0 74:0.024675225 75:0.014989623 76:0 77:0 78:0 79:0 80:0.0059189792 81:0.023445307 82:0.017295718 83:0.0018448766 84:0 85:0 86:0 87:0.014067184 88:0.00053808902 89:0.017141979 90:0.025520793 91:0.0015373972 92:0 93:0 94:0 95:0 96:7.6869859e-05 97:0.0099162119 98:0.022138519 98:0 99:0.0048626626 100:0.051977921 101:0 102:0 103:0 104:0.087725062 105:0.0092653437 106:0 107:0 108:0.014982258 109:0.070705743 110:0.033118675 111:0.0032855829 112:0 113:0.009199632 114:0.10559863 115:0.044486792 116:0.024313313 117:0.0010513865 118:0 119:0.1471284 120:0.073925614 121:0.0004599816 122:6.5711657e-05 123:0 124:0.049678013 125:0.066040216 126:0 127:0 128:0 129:0.026416086 130:0.05473781 131:0 132:0 133:0 134:0.0040741227 135:0.070837167 136:0 137:0 138:0 139:0.012090945 140:0.033972927 141:0 142:0 
0.1818111229791274 1:0 2:0 3:0 4:0.0068286626 5:0.016583895 6:0 7:0 8:0 9:0 10:0.00053210358 11:0.021727563 12:0.039907769 13:0.0065626109 14:0 15:0 16:0 17:0.0095778645 18:0.035473572 19:0.042834338 20:0.016317843 21:0 22:0 23:0.00035473572 24:0.020574672 25:0.022259667 26:0.038222774 27:0.016317843 28:0 29:0.00097552324 30:0.01782547 31:0.015431004 32:0.020219936 33:0.043721178 34:0.0094891806 35:0 36:0.019510465 37:0.0070060305 38:0.0021284143 39:0.015608372 40:0.034231997 41:0.0069173466 42:0 43:0.01081944 44:0.0094891806 45:0.0083362895 46:0.024565449 47:0.055161405 48:0.0061191912 49:0 50:0.0066512948 51:0.011617595 52:0.020131252 53:0.041238028 54:0.039464349 55:0 56:0 57:0 58:0 59:0.0029265697 60:0.033699894 61:0.014544165 62:0 63:0 64:0 65:0 66:0.0022170983 67:0.042124867 68:0.00035473572 69:0 70:0 71:0 72:0 73:0.025008868 74:0.021018092 75:0 76:0 77:0 78:0 79:0.0075381341 80:0.03068464 81:0.011883647 82:8.868393e-05 83:0 84:0 85:0 86:0.010996807 87:0.002571834 88:0.015608372 89:0.022437034 90:0.00017736786 91:0 92:0 93:0.00017736786 94:0.00062078751 95:8.868393e-05 96:0.013834693 97:0.020485988 98:0.00017736786 98:0 99:0.024017299 100:0.030118156 101:0.0027029114 102:0 103:0.0067958916 104:0.085103097 105:0.043014905 106:0.0078770561 107:0 108:0.028573635 109:0.063865936 110:0.04934744 111:0.0084176384 112:0 113:0.0064869874 114:0.10178392 115:0.04116148 116:0 117:0 118:0 119:0.10464129 120:0.095991968 121:0 122:0 123:0 124:0.023245038 125:0.081241795 126:0 127:0 128:0 129:0.0081859603 130:0.059000695 131:0.00015445208 132:0 133:0 134:0.011043324 135:0.061703606 136:0 137:0 138:0 139:0.029500348 140:0.026025176 141:0 142:0 
0.895676596016492 1:0 2:0 3:0 4:0.023392242 5:0.00036664956 6:0 7:0 8:0 9:0 10:0.014079343 11:0.023392242 12:0.001686588 13:0 14:0 15:0 16:0.00036664956 17:0.059250568 18:0.013566034 19:0.012979394 20:0 21:0 22:0 23:0.00021998973 24:0.072009973 25:0.015985921 26:0.019652416 27:0.00021998973 28:0 29:0 30:0.00036664956 31:0.061010486 32:0.027718706 33:0.0076996407 34:0.010779497 35:0 36:0 37:0 38:0.050304319 39:0.012246095 40:0.0092395688 41:0.016059251 42:0.0065263621 43:0 44:0.0028598665 45:0.062990394 46:0.0084329398 47:0.010046198 48:0.011146147 49:0.015545941 50:0 51:0.00058663929 52:0.073109922 53:0.017232529 54:0 55:0.0024198871 56:0.0052064237 57:0 58:0 59:0.046564494 60:0.032191831 61:0.0044731246 62:0.00021998973 63:0 64:0 65:0 66:0.024052211 67:0.038058224 68:0 69:0 70:0 71:0 72:0 73:0.00029331965 74:0.053310845 75:0.00073329911 76:0 77:0 78:0 79:0 80:0 81:0.042458019 82:0.0098262081 83:0 84:0 85:0 86:0.0018332478 87:0.018259148 88:0.0030798563 89:0.014299333 90:0 91:0 92:0.0053530835 93:0.021558994 94:0.0036664956 95:0 96:0.010926157 97:0.00014665982 98:0 98:0.00041832253 99:0.017499826 100:0.021752771 101:0 102:0 103:0.02147389 104:0.047897929 105:0.049501499 106:0.015896256 107:0 108:0.029910061 109:0.055148853 110:0.057798229 111:0.029491738 112:0 113:0.035557415 114:0.0529178 115:0.037091264 116:0.030886147 117:0 118:0.0075298055 119:0.088684376 120:0.063096981 121:0.013944084 122:0 123:0 124:0.04964094 125:0.063445583 126:0 127:0 128:0 129:0.042668898 130:0.061842014 131:0 132:0 133:0 134:0.031583351 135:0.03479049 136:0 137:0 138:0 139:0.016454019 140:0.023077459 141:0 142:0 
0.1156726765773538 1:0 2:0 3:0.0014367816 4:0.023863068 5:0.026924038 6:0 7:0 8:0 9:0 10:0.0044977511 11:0.025112444 12:0.013305847 13:0 14:0 15:0 16:0.016554223 17:0.035044978 18:0.032171414 19:6.2468766e-05 20:0 21:0 22:0 23:0.018553223 24:0.032046477 25:0.060282359 26:6.2468766e-05 27:0 28:0 29:0 30:0.018178411 31:0.035732134 32:0.046914043 33:0.00031234383 34:0 35:0 36:0 37:0.01617941 38:0.043915542 39:0.022363818 40:0.0043728136 41:0 42:0 43:0.00012493753 44:0.010182409 45:0.043478261 46:0.01567966 47:0.019990005 48:0.00012493753 49:0 50:0.0028735632 51:0.01011994 52:0.036544228 53:0.020552224 54:0.033545727 55:0.021864068 56:0.0001874063 57:0.001061969 58:0.022113943 59:0.0099325337 60:0.017428786 61:0.019990005 62:0.027236382 63:0.017241379 64:0.0023113443 65:0.016304348 66:0.016866567 67:0 68:0.00012493753 69:6.2468766e-05 70:0.028735632 71:0 72:0.012181409 73:0.018678161 74:0 75:0 76:0 77:0.007996002 78:0 79:0.0074337831 80:0.020864568 81:0 82:0 83:0 84:0 85:0.0061844078 86:0.011181909 87:0.023550725 88:0 89:0 90:0 91:0 92:0.0091829085 93:0.0016241879 94:0.0076836582 95:0.00087456272 96:0 97:0 98:0 98:0 99:0.056050589 100:0.019775798 101:0 102:0 103:0 104:0.065191147 105:0.055533199 106:0.0033342915 107:0 108:0 109:0.088473699 110:0.053751078 111:0.017763725 112:0 113:0.020465651 114:0.035584938 115:0.049669445 116:0.027824087 117:0 118:0.035297499 119:0.035240011 120:0.099166427 121:0.021845358 122:0 123:0 124:0.10549008 125:0.021730382 126:0 127:0 128:0 129:0.086289164 130:0.0078758264 131:0 132:0 133:0 134:0.034607646 135:0.032538086 136:0 137:0 138:0 139:0.0012072435 140:0.025294625 141:0 142:0 
0.1421706132779084 1:0 2:0 3:0 4:0.011196288 5:0.0060016139 6:0 7:0 8:0 9:0 10:0 11:0.032328021 12:0.0168953 13:0 14:0 15:0 16:0.00065563849 17:0.011700625 18:0.031521081 19:0.0085737341 20:0 21:0 22:0.00065563849 23:0.021938673 24:0.034900141 25:0.038783538 26:0.033286262 27:0.010792818 28:0 29:0.019568287 30:0.005598144 31:0.026729877 32:0.03691749 33:0.019517854 34:0.022493444 35:0.020375227 36:0 37:0 38:0.019568287 39:0.033487997 40:0.0048416381 41:0.0074641921 42:0.0020173492 43:0 44:0 45:0.029352431 46:0.032630623 47:0.0074641921 48:0 49:0 50:0 51:0 52:0.030008069 53:0.031117611 54:0.013818842 55:0 56:0 57:0 58:0 59:0.030310672 60:0.033740165 61:0.017702239 62:0 63:0 64:0 65:0 66:0.027183781 67:0.029503732 68:0.016643131 69:0 70:0 71:0 72:0 73:0.019517854 74:0.017097034 75:0.01149889 76:0 77:0 78:0 79:0 80:0.02244301 81:0.022896913 82:0.015483155 83:0 84:0 85:0 86:0 87:0.020274359 88:0.01825701 89:0.014222312 90:0 91:0 92:0 93:0 94:0.02799072 95:0.012608433 96:0.020425661 97:0 98:0 98:0 99:0.031918871 100:0.016356669 101:0 102:0 103:0 104:0.012010468 105:0.090148612 106:0 107:0 108:0.00028040004 109:0.20188803 110:0.098887747 111:0 112:0 113:0 114:0.0068230676 115:0.09865408 116:0 117:0 118:0 119:0 120:0.11683335 121:0 122:0 123:0 124:0.055285541 125:0.062342275 126:0 127:0 128:0 129:0.07248341 130:0.011262735 131:0 132:0 133:0 134:0.056500608 135:0.023460136 136:0 137:0 138:0 139:0.030984204 140:0.013879802 141:0 142:0 
0.3323934274317667 1:0.010222646 2:0.035952525 3:0.022351209 4:0 5:0 6:0 7:0 8:0.00077969332 9:0.028242225 10:0.029628346 11:0.0013861215 12:0 13:0 14:0 15:0 16:0 17:0.011175604 18:0.040197522 19:0.0047647925 20:0 21:0 22:0 23:0.00086632591 24:0.027289266 25:0.041756909 26:0.027202634 27:0 28:0 29:0 30:0 31:0.0077969332 32:0.032487222 33:0.053798839 34:0.019492333 35:0 36:0 37:0.00051979555 38:0.033353548 39:0.019665598 40:0.040977216 41:0.021658148 42:0 43:0 44:0 45:8.6632591e-05 46:0.015853764 47:0.040197522 48:0.021571515 49:0 50:0 51:0 52:0.00025989777 53:0.017846314 54:0.050073638 55:0.0040717318 56:0 57:0 58:0 59:0.0075370354 60:0.036299056 61:0.026163043 62:0 63:0 64:0 65:0.0033786711 66:0.020272026 67:0.033959976 68:0.00051979555 69:0 70:0 71:0 72:0.00069306073 73:0.027375899 74:0.0030321407 75:0 76:0 77:0 78:0 79:0.00086632591 80:0.033786711 81:0.018106212 82:0 83:0 84:0 85:0 86:0.0069306073 87:0.032920385 88:0.023564065 89:0 90:0 91:0 92:0 93:0.013254786 94:0.037078749 95:0.012734991 96:0 97:0 98:0 98:0 99:0.029978947 100:0.083115789 101:0 102:0 103:0 104:0.084210526 105:0.012042105 106:0 107:0 108:0 109:0.12033684 110:0.052126316 111:0.0025263158 112:0 113:0 114:0.0010947368 115:0.15713684 116:0.0086736842 117:0 118:0 119:0.056168421 120:0.061557895 121:0 122:0 123:0 124:0.076715789 125:0.021221053 126:0.00067368421 127:0 128:0 129:0.0528 130:0.0096 131:0 132:0 133:0 134:0.061305263 135:0.037810526 136:0.00075789474 137:0 138:0 139:0.041852632 140:0.025684211 141:0.0026105263 142:0 
1.585254161359862 1:0 2:0 3:0.0023696682 4:0.0026329647 5:0 6:0 7:0 8:0.0039494471 9:0 10:0.017114271 11:0.0021063718 12:0 13:0 14:0 15:0.010531859 16:0.0063191153 17:0.031595577 18:0.014744602 19:0.00026329647 20:0 21:0.0026329647 22:0.039494471 23:0.035018431 24:0.010531859 25:0.011585045 26:0.030015798 27:0.012374934 28:0.0060558189 29:0 30:0 31:0.014481306 32:0.014218009 33:0.0026329647 34:0.0039494471 35:0.018694049 36:0 37:0 38:0.0078988942 39:0.0081621906 40:0.00026329647 41:0 42:0 43:0 44:0 45:0.024223275 46:0.005002633 47:0.00078988942 48:0 49:0 50:0 51:0 52:0.1195366 53:0.078725645 54:0.00052659294 55:0 56:0 57:0 58:0 59:0.22933123 60:0.07609268 61:0.0034228541 62:0 63:0 64:0 65:0 66:0.045813586 67:0.03580832 68:0.0052659294 69:0 70:0 71:0 72:0 73:0.064244339 74:0.0015797788 75:0 76:0 77:0 78:0 79:0 80:0 81:0 82:0 83:0 84:0 85:0 86:0 87:0 88:0 89:0 90:0 91:0 92:0 93:0 94:0 95:0 96:0 97:0 98:0 98:0.0033686237 99:0.0033686237 100:0.0081809432 101:0.0026467757 102:0 103:0.019008662 104:0.058229066 105:0.074350337 106:0.0064966314 107:0 108:0.015158807 109:0.092396535 110:0.032483157 111:0.0060153994 112:0 113:0.0043310876 114:0.013233879 115:0.0062560154 116:0.0086621752 117:0 118:0.033205005 119:0.090230991 120:0.043551492 121:0.13739172 122:0 123:0.058710298 124:0.14942252 125:0.00024061598 126:0.072906641 127:0 128:0 129:0.056304139 130:0.0038498556 131:0 132:0 133:0 134:0 135:0 136:0 137:0 138:0 139:0 140:0 141:0 142:0 
0.9343792898092715 1:0 2:0 3:0 4:0.0022205774 5:0.0088823094 6:0.0014803849 7:0 8:0 9:0 10:0 11:0.0017271157 12:0.0034542314 13:0.0024673082 14:0.0012336541 15:0 16:0 17:0 18:0 19:0.0014803849 20:0.0012336541 21:0.0049346163 22:0.0044411547 23:0 24:0 25:0 26:0.00024673082 27:0.002714039 28:0.0078953861 29:0.010362694 30:0.0012336541 31:0.00049346163 32:0 33:0.00074019245 34:0.029360967 35:0.0046878855 36:0.10979521 37:0.00098692327 38:0.0041944239 39:0.00049346163 40:0.0019738465 41:0.010362694 42:0.011596348 43:0.043918085 44:0.097705403 45:0.0071551937 46:0.0098692327 47:0.0039476931 48:0.014310387 49:0.0064150012 50:0 51:0.00049346163 52:0.0017271157 53:0.012336541 54:0.014063657 55:0.0083888478 56:0.0061682704 57:0 58:0 59:0 60:0 61:0.0019738465 62:0.014557118 63:0.0066617321 64:0 65:0 66:0 67:0.013323464 68:0.34098199 69:0.020478658 70:0.0064150012 71:0 72:0 73:0 74:0.027387121 75:0.060202319 76:0.046138663 77:0 78:0 79:0 80:0 81:0.00098692327 82:0.0019738465 83:0.0017271157 84:0 85:0 86:0 87:0 88:0 89:0 90:0 91:0 92:0 93:0 94:0 95:0 96:0 97:0 98:0 98:0 99:0.0003902439 100:0.014829268 101:0 102:0 103:0.00097560976 104:0.0076097561 105:0.0068292683 106:0 107:0 108:0.003902439 109:0.062829268 110:0.0054634146 111:0 112:0 113:0.061658537 114:0.18439024 115:0.034926829 116:0.12214634 117:0 118:0.017365854 119:0.024 120:0.008 121:0.017756098 122:0 123:0.0056585366 124:0.091902439 125:0.2177561 126:0.0021463415 127:0 128:0 129:0.070243902 130:0.038439024 131:0 132:0 133:0 134:0.0007804878 135:0 136:0 137:0 138:0 139:0 140:0 141:0 142:0 
1.567327409062304 1:0 2:0 3:0.00029585799 4:0.0023668639 5:0.0047337278 6:0 7:0 8:0 9:0 10:0.0047337278 11:0.0094674556 12:0.00088757396 13:0 14:0 15:0 16:0 17:0.0029585799 18:0.0038461538 19:0.0023668639 20:0.0029585799 21:0.0038461538 22:0 23:0 24:0 25:0.0023668639 26:0.0020710059 27:0.01035503 28:0.0032544379 29:0 30:0 31:0 32:0 33:0.0032544379 34:0.038757396 35:0.0017751479 36:0.0056213018 37:0.00059171598 38:0 39:0 40:0.0029585799 41:0.043786982 42:0.0056213018 43:0.0023668639 44:0.0029585799 45:0.0038461538 46:0.0026627219 47:0.0023668639 48:0.026035503 49:0.0094674556 50:0.19911243 51:0.12278107 52:0.0097633136 53:0.011242604 54:0.01035503 55:0.013609467 56:0.0047337278 57:0.00059171598 58:0.0088757396 59:0.0029585799 60:0.010059172 61:0.014497041 62:0.026923077 63:0.015384615 64:0 65:0 66:0 67:0 68:0.0065088757 69:0.029585799 70:0.014201183 71:0 72:0 73:0 74:0 75:0.11449704 76:0.10828402 77:0.025147929 78:0 79:0 80:0 81:0 82:0.016272189 83:0.013313609 84:0.01035503 85:0 86:0 87:0 88:0 89:0 90:0.0017751479 91:0.00059171598 92:0 93:0 94:0 95:0 96:0 97:0 98:0 98:0 99:0.00024881811 100:0.014680269 101:0 102:0 103:0.00099527246 104:0.0037322717 105:0.01841254 106:0 107:0 108:0.00024881811 109:0.043294352 110:0.0097039064 111:0 112:0 113:0.0012440906 114:0.073152526 115:0.029111719 116:0 117:0 118:0.063946255 119:0.20552376 120:0.063199801 121:0.14232396 122:0 123:0.01841254 124:0.032595173 125:0.024135357 126:0.010947997 127:0 128:0 129:0.13983578 130:0.099776064 131:0 132:0 133:0 134:0.00049763623 135:0.0039810898 136:0 137:0 138:0 139:0 140:0 141:0 142:0 
0.5883196814097791 1:0 2:0 3:0 4:0.074570536 5:0.012298282 6:0 7:0 8:0 9:0 10:0 11:0.2482431 12:0.011061947 13:0 14:0 15:0 16:0.003058303 17:0.017308693 18:0.019130661 19:0.010541385 20:0.0032535138 21:0 22:0 23:0.013599688 24:0.015291515 25:0.0072228006 26:0.0071577303 27:0.0060515357 28:0.00045549193 29:0.0090447683 30:0.0055960437 31:0.0059213951 32:0.014640812 33:0.0035788652 34:0.0020171786 35:0.008719417 36:0.0016267569 37:0 38:0.0096954711 39:0.020432067 40:0.0041644977 41:0 42:0.0016918272 43:0 44:0 45:0.017113483 46:0.0057261843 47:0.0052056221 48:0 49:0 50:0 51:0 52:0.008719417 53:0.0038391463 54:0.0026678813 55:0 56:0 57:0 58:0 59:0.0059213951 60:0 61:0.0040343571 62:0 63:0 64:0 65:0.00019521083 66:0.012688704 67:0 68:0.0096304008 69:0 70:0 71:0 72:0.0027980219 73:0.0043597085 74:0 75:0.0052056221 76:0.00052056221 77:0 78:0 79:0.0033185841 80:0.0022774597 81:0 82:0.0028630921 83:0.0010411244 84:0 85:0 86:0.01190786 87:0.0050754815 88:0 89:0.0071577303 90:0.006832379 91:0 92:0 93:0.15311036 94:0.024271213 95:0 96:0.008719417 97:0.1484253 98:0 98:0 99:0.1874502 100:0.061304781 101:0 102:0 103:0 104:0.017579681 105:0.051294821 106:0 107:0 108:0 109:0.025946215 110:0.039442231 111:0 112:0 113:0 114:0.22998008 115:0.047659363 116:0 117:0 118:0 119:0.0010956175 120:0.019123506 121:0 122:0 123:0 124:0 125:0.022260956 126:0 127:0 128:0 129:0 130:0.014193227 131:0.00024900398 132:0 133:0 134:0.012998008 135:0.052191235 136:0.00014940239 137:0 138:0 139:0.18665339 140:0.030328685 141:9.9601594e-05 142:0 
0.776456431321351 1:0 2:0.018375242 3:0.036336004 4:0 5:0 6:0 7:0 8:0 9:0.081099751 10:0.061342912 11:0.0044211108 12:0 13:0 14:0 15:0.0046974302 16:0.019894999 17:0.015750207 18:0.025006908 19:0.01464493 20:0.00027631943 21:0 22:0.016164686 23:0.022243714 24:0.013263332 25:0.012987013 26:0.0063553468 27:0.018375242 28:0.0048355899 29:0.013677812 30:0.0070461453 31:0.011190937 32:0.010914617 33:0.0016579166 34:0.0044211108 35:0.012158055 36:0.016855485 37:0.0034539928 38:0.021552915 39:0.022105554 40:0.013677812 41:0 42:0 43:0 44:0 45:0.023763471 46:0.03371097 47:0.015197568 48:0.00041447914 49:0 50:0 51:0 52:0.01450677 53:0.016855485 54:0.0082895828 55:0.0034539928 56:0 57:0 58:0 59:0.0067698259 60:0.0059408676 61:0.0052500691 62:0.0059408676 63:0 64:0 65:0 66:0.0078751036 67:0.012019895 68:0.002901354 69:0.011743576 70:0.0011052777 71:0 72:0 73:0.0070461453 74:0.0073224648 75:0 76:0.0041447914 77:0.0033158331 78:0 79:0 80:0.0027631943 81:0.0056645482 82:0 83:0.00096711799 84:0.016993645 85:0 86:0 87:0 88:0.02403979 89:0 90:0 91:0.064658746 92:0 93:0 94:0 95:0.17256148 96:0 97:0 98:0 98:0 99:0.019587195 100:0.069081719 101:0 102:0 103:0 104:0.001474305 105:0.067607414 106:0 107:0 108:0 109:0.17719742 110:0.058199944 111:0 112:0 113:0 114:0.075680988 115:0.074066274 116:0 117:0 118:0 119:0.19285313 120:0.039876439 121:0 122:0 123:0 124:0 125:0.026607694 126:0 127:0 128:0 129:0 130:0.01797248 131:0 132:0 133:0 134:0.052302724 135:0.047107554 136:0 137:0 138:0 139:0.067747824 140:0.0126369 141:0 142:0 
0.05723940783264692 1:0 2:0 3:0.031419867 4:0.10256257 5:0.0029866794 6:0 7:0 8:0 9:0 10:0.033510543 11:0.17155487 12:0.0022101428 13:0 14:0 15:0 16:0.0051370886 17:0.01332059 18:0.016844872 19:0.013021922 20:0.0028074786 21:0 22:0.0037632161 23:0.011528583 24:0.013499791 25:0.0066304283 26:0.014455528 27:0.0087211039 28:0.00041813512 29:0.0090795054 30:0.002030942 31:0.0065706947 32:0.014336061 33:0.0041813512 34:0.0036437489 35:0.0057344245 36:0.00095573741 37:0 38:0.0082432352 39:0.018756347 40:0.0056149573 41:0 42:0.0014336061 43:0 44:0.00041813512 45:0.009139239 46:0.0065109611 47:0.0063317603 48:0 49:0 50:0 51:0.0011946718 52:0.0045397527 53:0.0054357565 54:0.0034645481 55:0 56:0 57:0 58:0.0012544054 59:0.0047189535 60:0.0013738725 61:0.0034048145 62:0 63:0 64:0 65:0.0047786871 66:0.010811779 67:0.00023893435 68:0.011409115 69:0.00023893435 70:0 71:0 72:0.0031658802 73:0.0043008184 74:0 75:0.0043008184 76:0.0014336061 77:0 78:0 79:0.0021504092 80:0.0019114748 81:0 82:0.0025088107 83:0.00095573741 84:0 85:0 86:0.012066185 87:0.0044202855 88:0 89:0.0092587062 90:0.0060330924 91:0 92:0 93:0.16570097 94:0.0022698764 95:0 96:0.036855624 97:0.13242937 98:0 98:0 99:0.18360765 100:0.07475217 101:0 102:0 103:0 104:0.015937011 105:0.053218233 106:0 107:0 108:0 109:0.026324527 110:0.045392022 111:0 112:0 113:0 114:0.20447754 115:0.039131053 116:0 117:0 118:0 119:0.0007114737 120:0.019067495 121:0 122:0 123:0 124:0 125:0.027889769 126:0 127:0 128:0 129:0 130:0.014229474 131:0 132:0 133:0 134:0.032585495 135:0.065550443 136:0 137:0 138:0 139:0.17478537 140:0.022340274 141:0 142:0 
0.4810834216509869 1:0 2:0 3:0.033883947 4:0.0093180856 5:0 6:0 7:0 8:0 9:0 10:0.14051249 11:0.10239305 12:0 13:0 14:0 15:0 16:0.0046590428 17:0.020753918 18:0.016094875 19:0.012071156 20:0.0037060568 21:0 22:0 23:0.018530284 24:0.017577298 25:0.0095298602 26:0.0081533249 27:0.0070944515 28:0.0014824227 29:0.0051884795 30:0.015247776 31:0.0090004235 32:0.012177044 33:0.0043413808 34:0.00031766201 35:0.01471834 36:0.014400678 37:0.0039178314 38:0.0097416349 39:0.019906819 40:0.011753494 41:0 42:0 43:0.00158831 44:0 45:0.017259636 46:0.013235917 47:0.010376959 48:0.00063532402 49:0 50:0 51:0 52:0.0093180856 53:0.0074121135 54:0.0069885642 55:0.0021177467 56:0 57:0 58:0 59:0.0051884795 60:0.0043413808 61:0.0026471834 62:0.0028589581 63:0 64:0 65:0 66:0.0036001694 67:0.015036002 68:0 69:0.01747141 70:0.0010588734 71:0 72:0 73:0.0048708175 74:0.0082592122 75:0 76:0.0055061415 77:0.0010588734 78:0 79:0 80:0.0031766201 81:0.0049767048 82:0 83:0.001905972 84:0.0045531554 85:0 86:0 87:0 88:0.01905972 89:0 90:0 91:0.03060144 92:0 93:0 94:0.084709869 95:0.16010165 96:0 97:0 98:0.023612876 98:0 99:0.08142047 100:0.075276803 101:0 102:0 103:0 104:0.01863354 105:0.058533621 106:0 107:0 108:0 109:0.013165001 110:0.060761545 111:0 112:0 113:0 114:0.21293546 115:0.064272212 116:0 117:0 118:0 119:0.13232514 120:0.026600054 121:0 122:0 123:0 124:0.00033756414 125:0.029435593 126:0 127:0 128:0 129:0 130:0.018768566 131:0 132:0 133:0 134:0.012827437 135:0.050229544 136:0 137:0 138:0 139:0.12726168 140:0.017215771 141:0 142:0 
0.4236909617841933 1:0 2:0 3:0.0002365744 4:0.0048497753 5:0 6:0 7:0 8:0 9:0 10:0.03400757 11:0.26206529 12:0 13:0 14:0 15:0 16:0.00082801041 17:0.0092855453 18:0.16045659 19:0.0071563757 20:0 21:0 22:0.0001182872 23:0.0085166785 24:0.0072155193 25:0.0096995505 26:0.012361013 27:0.0062100781 28:0 29:0.0080435297 30:0.0057960729 31:0.0092264017 32:0.0094629761 33:0.0095812633 34:0.0085166785 35:0.002365744 36:0.0055003549 37:0 38:0.0069789449 39:0.022947717 40:0.0049089189 41:0.0011237284 42:0.0041991956 43:0 44:0 45:0.0083983913 46:0.0057960729 47:0.0095812633 48:0 49:0.0001774308 50:0 51:0.00053229241 52:0.0056186421 53:0.0072155193 54:0.0065057961 55:0 56:0 57:0 58:0.00094629761 59:0.0060917909 60:0.0010054412 61:0.0034894724 62:0 63:0 64:0 65:0.0012420156 66:0.0069198013 67:0.00065057961 68:0.0061509345 69:0 70:0 71:0 72:0.0031346108 73:0.0099952685 74:0.00059143601 75:0.0099361249 76:0 77:0 78:0 79:0.0018334516 80:0.0021291696 81:0 82:0.0027797492 83:0.00070972321 84:0 85:0 86:0.0065057961 87:0.00047314881 88:0 89:0.0049089189 90:0.0002365744 91:0 92:0.001774308 93:0.13384197 94:0 95:0 96:0.058256447 97:0.070913177 98:0 98:0 99:0.089984973 100:0.034164236 101:0 102:0 103:0 104:0.18248917 105:0.063378414 106:0 107:0 108:0 109:0.020021215 110:0.040484398 111:0 112:0 113:0 114:0.11256961 115:0.050561301 116:0 117:0 118:0 119:0.087686732 120:0.02298241 121:0 122:0 123:0 124:0 125:0.016441262 126:0 127:0 128:0 129:0 130:0.021921683 131:0 132:0 133:0 134:0 135:0.018739503 136:0 137:0 138:0 139:0.18173782 140:0.056837267 141:0 142:0 
0.8304333055344996 1:0 2:0 3:0 4:0.061192011 5:0.087132967 6:0 7:0 8:0 9:0 10:0 11:0.046948357 12:0.16169332 13:0 14:0 15:0 16:0 17:0.020689106 18:0.029760484 19:0.010821994 20:0 21:0 22:0 23:0.012413464 24:0.0094692448 25:0.020211665 26:0.0031829394 27:0 28:0 29:0.010742421 30:0.008832657 31:0 32:0.012890905 33:0.0054109971 34:0 35:0 36:0.0033420864 37:0 38:0.0018301902 39:0.022837591 40:0.005570144 41:0 42:0 43:0 44:0 45:0.00867351 46:0.0077982016 47:0.0011936023 48:0 49:0 50:0 51:0 52:0.0073207607 53:0.003103366 54:0.00023872046 55:0.00015914697 56:0 57:0 58:0 59:0.0054905705 60:0.0018301902 61:0.00047744092 62:0.00079573486 63:0 64:0 65:0 66:0.016232991 67:0.00023872046 68:0 69:7.9573486e-05 70:0 71:0 72:0 73:0.0069228933 74:0 75:0.00031829394 76:0.0011140288 77:0 78:0 79:0 80:0.0069228933 81:0 82:0 83:0.00087530835 84:0 85:0 86:0.00071616138 87:0.026657118 88:0 89:0 90:0.0095488183 91:0 92:0 93:0.099387284 94:0.094215008 95:0 96:0 97:0.143471 98:0.021246121 98:0 99:0.18913085 100:0.080566313 101:0 102:0 103:0 104:0.021014539 105:0.054663196 106:0 107:0 108:0 109:0.022474764 110:0.03422005 111:0 112:0 113:0 114:0.20030474 115:0.036950035 116:0 117:0 118:0 119:0.0003809282 120:0.014094343 121:0 122:0 123:0 124:0 125:0.017967113 126:0 127:0 128:0 129:0 130:0.0091422767 131:0.0010158085 132:0 133:0 134:0.1400546 135:0.083486763 136:0.0001904641 137:0 138:0 139:0.076820519 140:0.017522697 141:0 142:0 
0.6780699717640902 1:0 2:0 3:0.12866974 4:0.047565119 5:0 6:0 7:0 8:0 9:0 10:0.13668438 11:0.017945814 12:0 13:0 14:0 15:0 16:0 17:0.013590034 18:0.03031623 19:0.016464849 20:0 21:0 22:0 23:0.0001742312 24:0.007666173 25:0.018991201 26:0.010453872 27:0.0062723234 28:0 29:0 30:0 31:0.018642739 32:0.010540988 33:0.00026134681 34:0.01149926 35:0.0062723234 36:0 37:0 38:0.014025612 39:0.017858698 40:0 41:0 42:0.010976566 43:0 44:0.0001742312 45:0.0047042425 46:0.016987542 47:0.00060980922 48:0 49:0 50:0 51:0.0019165433 52:0.0011325028 53:0.005923861 54:0.0021778901 55:0 56:0 57:0 58:0.0036588553 59:0.00034846241 60:0.0039202021 61:0.0023521213 62:0 63:0 64:0 65:0.0070563638 66:0 67:0.0060980922 68:0.0087986758 69:0 70:0 71:0 72:0.0034846241 73:0 74:0.00060980922 75:0.0050527049 76:0 77:0 78:0 79:0.0038330865 80:0 81:0 82:0.006359439 83:0 84:0 85:0.00060980922 86:0.014809652 87:0 88:0 89:0.028399686 90:0 91:0 92:0.084415019 93:0.05209513 94:0 95:0 96:0.20960014 97:0 98:0 98:0 99:0.1499805 100:0.082238981 101:0 102:0 103:0 104:0.021843713 105:0.048368223 106:0 107:0 108:0 109:0.026914575 110:0.031010272 111:0 112:0 113:0 114:0.25016253 115:0.047002991 116:0 117:0 118:0 119:0.00078013262 120:0.013912365 121:0 122:0 123:0 124:0 125:0.022363802 126:0 127:0 128:0 129:0 130:0.010921857 131:0.00026004421 132:0 133:0 134:0.16701339 135:0.087179821 136:0.00039006631 137:0 138:0 139:0.037901443 140:0.0017552984 141:0 142:0 
0.1141099087831293 1:0 2:0 3:0 4:0.011194938 5:0.017035775 6:0 7:0 8:0 9:0 10:0 11:0.092236554 12:0.12776831 13:0 14:0 15:0 16:0 17:0.0099780969 18:0.015818934 19:0.016062302 20:0.0038938915 21:0 22:0 23:0 24:0.014602093 25:0.018009248 26:0.018252616 27:0.00097347286 28:0 29:0 30:0.0021903139 31:0.010464833 32:0.021416403 33:0.013141884 34:0 35:0 36:0 37:0.0026770504 38:0.005597469 39:0.010464833 40:0.026770504 41:0 42:0 43:0 44:0.071063519 45:0.014845461 46:0.0046239961 47:0.0080311511 48:0.00073010465 49:0 50:0 51:0.16841081 52:0.0031637868 53:0.0019469457 54:0.0043806279 55:0.00024336822 56:0 57:0 58:0 59:0.0031637868 60:0.0029204186 61:0.0048673643 62:0.00048673643 63:0 64:0 65:0 66:0.0041372597 67:0.0080311511 68:0.0070576783 69:0 70:0 71:0 72:0 73:0.0026770504 74:0.0029204186 75:0.0038938915 76:0 77:0 78:0 79:0 80:0.0029204186 81:0.0014602093 82:0.0036505232 83:0 84:0 85:0 86:0 87:0.00073010465 88:0.020199562 89:0.020199562 90:0 91:0 92:0 93:0 94:0.0046239961 95:0.094670236 96:0.050133853 97:0.045266488 98:0 98:0 99:0.16646386 100:0.057434899 101:0 102:0 103:0 104:0.02458019 105:0.055487953 106:0 107:0 108:0 109:0.05865174 110:0.030421027 111:0 112:0 113:0 114:0.055487953 115:0.027500608 116:0 117:0 118:0 119:0.13312241 120:0.11000243 121:0 122:0 123:0 124:0.0026770504 125:0.024823558 126:0 127:0 128:0 129:0 130:0.015088829 131:0 132:0 133:0 134:0.1041616 135:0.090776345 136:0 137:0 138:0 139:0.031637868 140:0.011681674 141:0 142:0 
0.1213995929289037 1:0 2:0 3:0.035814607 4:0.030898876 5:0 6:0 7:0 8:0 9:0.0014044944 10:0.016853933 11:0.022823034 12:0.0038623596 13:0 14:0 15:0 16:0.011587079 17:0.012991573 18:0.012289326 19:0.014747191 20:0.001755618 21:0 22:0 23:0.012289326 24:0.015098315 25:0.012640449 26:0.014044944 27:0.0045646067 28:0 29:0.0010533708 30:0.011235955 31:0.011587079 32:0.010182584 33:0.012289326 34:0.0052668539 35:0 36:0.0098314607 37:0.0098314607 38:0.0056179775 39:0.0094803371 40:0.0049157303 41:0.018609551 42:0 43:0.08988764 44:0.015098315 45:0.0063202247 46:0.012289326 47:0.0042134831 48:0.15379213 49:0 50:0.047050562 51:0.001755618 52:0.0042134831 53:0.0066713483 54:0.0031601124 55:0.086376404 56:0 57:0 58:0.0003511236 59:0.010182584 60:0.0056179775 61:0.0042134831 62:0 63:0 64:0 65:0 66:0.012640449 67:0.0073735955 68:0.0042134831 69:0 70:0 71:0 72:0 73:0.0084269663 74:0.0045646067 75:0.003511236 76:0 77:0 78:0 79:0 80:0.0052668539 81:0.0042134831 82:0.0014044944 83:0 84:0 85:0 86:0 87:0.077949438 88:0.053019663 89:0.031952247 90:0 91:0 92:0 93:0 94:0 95:0.00070224719 96:0 97:0 98:0 98:0 99:0.091643258 100:0.0042134831 101:0 102:0 103:0 104:0.020014045 105:0.065308989 106:0 107:0 108:0 109:0.039676966 110:0.054424157 111:0 112:0 113:0 114:0.084620787 115:0.14466292 116:0 117:0 118:0 119:0.075842697 120:0.19101124 121:0 122:0 123:0 124:0.0028089888 125:0.034761236 126:0 127:0 128:0 129:0 130:0.021769663 131:0 132:0 133:0 134:0.10919944 135:0.060042135 136:0 137:0 138:0 139:0 140:0 141:0 142:0 
0.1952449908966964 1:0 2:0 3:0 4:0 5:0 6:0 7:0 8:0 9:0 10:0.01307321 11:0.033386967 12:0 13:0 14:0 15:0 16:0 17:0.054304103 18:0.2538214 19:0 20:0 21:0 22:0 23:0.0042236525 24:0.0088495575 25:0.018101368 26:0.0080450523 27:0.00060337892 28:0 29:0 30:0.0032180209 31:0.013877715 32:0.016090105 33:0.016492357 34:0.00060337892 35:0 36:0.00020112631 37:0.0060337892 38:0.0082461786 39:0.015888978 40:0.010056315 41:0.0042236525 42:0 43:0.00060337892 44:0.0040225261 45:0.0064360418 46:0.023129525 47:0.0068382944 48:0.0028157683 49:0 50:0.043845535 51:0.012067578 52:0.0050281577 53:0.0054304103 54:0.0054304103 55:0.052896219 56:0 57:0.080450523 58:0.00080450523 59:0.0034191472 60:0.025341915 61:0.0062349155 62:0.14119067 63:0 64:0 65:0 66:0.0048270314 67:0.0028157683 68:0.0024135157 69:0 70:0 71:0 72:0 73:0.0086484312 74:0.0082461786 75:0.0022123894 76:0 77:0 78:0 79:0 80:0.0058326629 81:0.0046259051 82:0.0022123894 83:0 84:0 85:0 86:0 87:0.0028157683 88:0.0016090105 89:0.0014078842 90:0 91:0 92:0 93:0 94:0.019509252 95:0.017497989 96:0 97:0 98:0 98:0 99:0.0061705989 100:0.0019963702 101:0 102:0 103:0 104:0.26678766 105:0.053901996 106:0 107:0 108:0 109:0.030671506 110:0.041742287 111:0 112:0 113:0 114:0.044101633 115:0.028130672 116:0 117:0 118:0 119:0.047186933 120:0.16170599 121:0 122:0 123:0 124:0.0099818512 125:0.14264973 126:0 127:0 128:0 129:0.0072595281 130:0.01923775 131:0 132:0 133:0 134:0 135:0.0087114338 136:0 137:0 138:0 139:0.10381125 140:0.025952813 141:0 142:0 
0.5778293037699845 1:0 2:0 3:0 4:0 5:0 6:0 7:0 8:0 9:0 10:0 11:0 12:0 13:0 14:0 15:0 16:0 17:0.011070111 18:0.066420664 19:0 20:0 21:0 22:0 23:0 24:0.11208487 25:0.36900369 26:0 27:0 28:0 29:0 30:0.015682657 31:0.021217712 32:0.022601476 33:0.056734317 34:0.042435424 35:0 36:0 37:0.016605166 38:0.044280443 39:0.014760148 40:0.011070111 41:0 42:0 43:0 44:0 45:0.033671587 46:0.024446494 47:0.0036900369 48:0 49:0 50:0 51:0 52:0.01798893 53:0.01798893 54:0.0023062731 55:0 56:0 57:0 58:0 59:0.0087638376 60:0.012915129 61:0.00092250923 62:0 63:0 64:0 65:0 66:0.011531365 67:0.00092250923 68:0.0036900369 69:0 70:0 71:0 72:0 73:0.0073800738 74:0.0023062731 75:0.0023062731 76:0 77:0 78:0 79:0 80:0.01798893 81:0.0092250923 82:0 83:0 84:0 85:0 86:0 87:0.008302583 88:0.0023062731 89:0 90:0 91:0 92:0 93:0 94:0.0064575646 95:0.00092250923 96:0 97:0 98:0 98:0 99:0 100:0 101:0 102:0 103:0 104:0.17073171 105:0.090465632 106:0 107:0 108:0 109:0.27228381 110:0.15609756 111:0 112:0 113:0 114:0.089578714 115:0.038580931 116:0 117:0 118:0 119:0.033702882 120:0.023503326 121:0 122:0 123:0 124:0.011529933 125:0.019955654 126:0 127:0 128:0 129:0.0039911308 130:0.02172949 131:0 132:0 133:0 134:0 135:0.024833703 136:0 137:0 138:0 139:0 140:0.043015521 141:0 142:0 
0.4616763557048789 1:0 2:0 3:0.012380416 4:0.13505909 5:0 6:0 7:0 8:0 9:0.0033764772 10:0.032076533 11:0.075407991 12:0.0016882386 13:0 14:0 15:0 16:0.010692178 17:0.02363534 18:0.018007878 19:0.02363534 20:0.01181767 21:0 22:0 23:0.002813731 24:0.019696117 25:0.018007878 26:0.028700056 27:0.0045019696 28:0 29:0 30:0 31:0.02813731 32:0.024760833 33:0.0073157006 34:0 35:0 36:0 37:0.0016882386 38:0.014631401 39:0.0073157006 40:0.0050647158 41:0 42:0 43:0 44:0.0045019696 45:0.011254924 46:0.0067529544 47:0.0033764772 48:0 49:0 50:0 51:0.0067529544 52:0.014068655 53:0.0061902082 54:0.002813731 55:0 56:0 57:0 58:0.0050647158 59:0.013505909 60:0.012380416 61:0.0005627462 62:0 63:0 64:0 65:0.0095666854 66:0.024198087 67:0.017445132 68:0 69:0 70:0 71:0 72:0.005627462 73:0.013505909 74:0.0073157006 75:0 76:0 77:0 78:0 79:0.0039392234 80:0.010129432 81:0.0050647158 82:0 83:0 84:0 85:0 86:0.01631964 87:0.046707935 88:0.11142375 89:0.08441193 90:0 91:0 92:0 93:0.0005627462 94:0.002813731 95:0.012380416 96:0.030951041 97:0 98:0 98:0 99:0.20202589 100:0.022509848 101:0 102:0 103:0 104:0.046707935 105:0.10692178 106:0 107:0 108:0 109:0.040517727 110:0.063027575 111:0 112:0 113:0 114:0.0061902082 115:0.038266742 116:0 117:0 118:0 119:0.015756894 120:0.03263928 121:0 122:0 123:0 124:0.037141249 125:0.037141249 126:0 127:0 128:0 129:0.01181767 130:0.024760833 131:0 132:0 133:0 134:0.21102983 135:0.1035453 136:0 137:0 138:0 139:0 140:0 141:0 142:0 
0.5549747271260372 1:0 2:0 3:0 4:0 5:0 6:0 7:0 8:0 9:0 10:0 11:0 12:0 13:0 14:0 15:0 16:0 17:0 18:0 19:0.0025465542 20:0.001750756 21:0 22:0 23:0 24:0 25:0 26:0.22361929 27:0.042177304 28:0 29:0.10791023 30:0.026897979 31:0.00079579819 32:0.00063663855 33:0.19703963 34:0.012096132 35:0 36:0.10615948 37:0.070985198 38:0.005252268 39:0.011618654 40:0.026738819 41:0.0060480662 42:0 43:0 44:0 45:0 46:0.023555626 47:0.015279325 48:0.0025465542 49:0 50:0 51:0 52:0 53:0.021327391 54:0.012573611 55:0.00047747891 56:0 57:0 58:0 59:0 60:0.005252268 61:0.0060480662 62:0 63:0 64:0 65:0 66:0 67:0.0022282349 68:0.026579659 69:0 70:0 71:0 72:0 73:0 74:0.0022282349 75:0.0044564698 76:0 77:0 78:0 79:0 80:0 81:0.0012732771 82:0.0090720993 83:0 84:0 85:0 86:0 87:0 88:0 89:0.017985039 90:0 91:0 92:0 93:0 94:0 95:0 96:0.0068438644 97:0 98:0 98:0 99:0 100:0 101:0 102:0 103:0 104:0.0080760095 105:0.0069675376 106:0 107:0 108:0.011718131 109:0.29184481 110:0.28202692 111:0.011718131 112:0 113:0.0101346 114:0.11686461 115:0.11876485 116:0.011559778 117:0 118:0 119:0.025969913 120:0.021852732 121:0 122:0 123:0 124:0.020585907 125:0.0152019 126:0 127:0 128:0 129:0.0064924782 130:0.0064924782 131:0 132:0 133:0 134:0.012509897 135:0.012826603 136:0 137:0 138:0 139:0.0041171813 140:0.0042755344 141:0 142:0 
1.114289282218307 1:0 2:0 3:0 4:0 5:0 6:0 7:0 8:0 9:0 10:0 11:0 12:0.0013951866 13:0.0034879665 14:0 15:0 16:0 17:0 18:0 19:0.22532264 20:0.081967213 21:0.0006975933 22:0.14998256 23:0.13812347 24:0.0097663062 25:0.0066271364 26:0.035577258 27:0.028601325 28:0.0013951866 29:0.0017439833 30:0.089291943 31:0.0097663062 32:0.018137426 33:0.017091036 34:0.012905476 35:0.0062783397 36:0 37:0 38:0 39:0.0006975933 40:0.032438089 41:0.010812696 42:0.0017439833 43:0 44:0 45:0 46:0.0027903732 47:0.015695849 48:0.012556679 49:0 50:0 51:0 52:0 53:0.0041855598 54:0.0083711196 55:0.0052319498 56:0 57:0 58:0 59:0 60:0.00104639 61:0.0066271364 62:0.0052319498 63:0 64:0 65:0 66:0 67:0.0013951866 68:0.0020927799 69:0.0027903732 70:0 71:0 72:0 73:0 74:0.00104639 75:0.0097663062 76:0.0024415766 77:0 78:0 79:0 80:0 81:0 82:0.014300663 83:0.0041855598 84:0 85:0 86:0 87:0 88:0.00034879665 89:0.0048831531 90:0.0034879665 91:0 92:0 93:0 94:0 95:0.00034879665 96:0.006975933 97:0.00034879665 98:0 98:0 99:0 100:0 101:0 102:0 103:0 104:0.24953395 105:0.015712383 106:0 107:0 108:0.0026631158 109:0.19094541 110:0.11984021 111:0.061251664 112:0 113:0 114:0.0058588549 115:0.046071904 116:0 117:0 118:0 119:0.007723036 120:0.015978695 121:0 122:0 123:0 124:0.0026631158 125:0.0085219707 126:0 127:0 128:0 129:0.0013315579 130:0.021038615 131:0 132:0 133:0 134:0.0029294274 135:0.0079893475 136:0 137:0 138:0 139:0.1081225 140:0.13182423 141:0 142:0 
0.1902687923342103 1:0 2:0 3:0.02117695 4:0.061494604 5:0 6:0 7:0 8:0 9:0 10:0.035837915 11:0.093056404 12:0 13:0 14:0 15:0 16:0.0052942374 17:0.012217471 18:0.011606597 19:0.010995724 20:0 21:0 22:0 23:0.0073304826 24:0.0083486052 25:0.015679088 26:0.018326206 27:0 28:0 29:0.0012217471 30:0.0089594787 31:0.0087558542 32:0.016289961 33:0.014253716 34:0.00040724903 35:0 36:0.00081449807 37:0.0048869884 38:0.019751578 39:0.0097739768 40:0.0077377316 41:0.0010181226 42:0 43:0.018529831 44:0.0020362452 45:0.0071268581 46:0.0044797394 47:0.045815516 48:0.024027693 49:0 50:0.073712075 51:0.00061087355 52:0.028100183 53:0.006719609 54:0.032783547 55:0.1138261 56:0 57:0 58:0.0014253716 59:0.0034616168 60:0.0012217471 61:0.0038688658 62:0 63:0 64:0 65:0.0089594787 66:0.0018326206 67:0 68:0.010792099 69:0 70:0 71:0 72:0.005905111 73:0 74:0 75:0.0040724903 76:0.0014253716 77:0 78:0.00020362452 79:0.0028507432 80:0 81:0 82:0.00061087355 83:0.0020362452 84:0 85:0.013031969 86:0.0036652413 87:0 88:0 89:0.00020362452 90:0.017715333 91:0 92:0.06088373 93:0.017511708 94:0 95:0 96:0.0083486052 97:0.076970067 98:0 98:0 99:0.1494604 100:0.044593769 101:0 102:0 103:0 104:0.032783547 105:0.039299532 106:0 107:0 108:0 109:0.044797394 110:0.040317654 111:0 112:0 113:0 114:0.037059662 115:0.045001018 116:0 117:0 118:0 119:0.055793117 120:0.26695174 121:0 122:0 123:0 124:0.0093667278 125:0.019140705 126:0 127:0 128:0 129:0 130:0.015475463 131:0 132:0 133:0 134:0.13072694 135:0.039503156 136:0 137:0 138:0 139:0.026674812 140:0.0030543677 141:0 142:0 
1.136971756551604 1:0 2:0 3:0 4:0 5:0 6:0 7:0 8:0 9:0 10:0 11:0 12:0 13:0 14:0 15:0 16:0 17:0.0034557235 18:0.0051835853 19:0 20:0 21:0 22:0 23:0 24:0.19913607 25:0.22764579 26:0 27:0 28:0 29:0.00043196544 30:0.0064794816 31:0.10280778 32:0.081641469 33:0.0099352052 34:0.0047516199 35:0.0060475162 36:0.012526998 37:0.012958963 38:0.014686825 39:0.016846652 40:0.01987041 41:0.012095032 42:0.011231102 43:0 44:0.00086393089 45:0.013822894 46:0.033693305 47:0.0012958963 48:0 49:0 50:0 51:0.0021598272 52:0.010367171 53:0.02462203 54:0.0030237581 55:0 56:0 57:0 58:0.00086393089 59:0.0095032397 60:0.0064794816 61:0.0073434125 62:0 63:0 64:0 65:0.0012958963 66:0.015550756 67:0.0056155508 68:0.0064794816 69:0 70:0 71:0 72:0.0012958963 73:0.0099352052 74:0.0043196544 75:0.003887689 76:0 77:0 78:0 79:0.00043196544 80:0.012095032 81:0.0073434125 82:0.0073434125 83:0 84:0 85:0 86:0.00043196544 87:0.020734341 88:0.01425486 89:0.0064794816 90:0 91:0 92:0 93:0 94:0.0099352052 95:0.0051835853 96:0.0056155508 97:0 98:0 98:0 99:0 100:0 101:0 102:0 103:0 104:0.0060483871 105:0.006624424 106:0 107:0 108:0 109:0.3015553 110:0.12442396 111:0 112:0 113:0 114:0.08640553 115:0.31739631 116:0 117:0 118:0 119:0.016417051 120:0.029665899 121:0 122:0 123:0 124:0.0057603687 125:0.023041475 126:0 127:0 128:0 129:0.0072004608 130:0.017281106 131:0 132:0 133:0 134:0.011808756 135:0.027937788 136:0 137:0 138:0 139:0.00057603687 140:0.017857143 141:0 142:0 
0.8197789074928303 1:0 2:0 3:0 4:0 5:0 6:0 7:0 8:0 9:0 10:0 11:0 12:0 13:0 14:0 15:0 16:0 17:0 18:0 19:0.0054914882 20:0.0010982976 21:0 22:0 23:0 24:0 25:0 26:0.37030935 27:0.033864177 28:0 29:0.15687351 30:0.051803039 31:0.0027457441 32:0.0058575874 33:0.078528281 34:0.0064067362 35:0 36:0.019220209 37:0.058392824 38:0.0056745378 39:0.011715175 40:0.019037159 41:0.0049423394 42:0 43:0 44:0 45:0 46:0.032948929 47:0.0080541827 48:0.0025626945 49:0 50:0 51:0 52:0 53:0.024162548 54:0.0086033315 55:0.0012813472 56:0 57:0 58:0 59:0 60:0.0082372323 61:0.0042101409 62:0.00073219843 63:0 64:0 65:0 66:0 67:0.0042101409 68:0.026908292 69:0.0016474465 70:0 71:0 72:0 73:0 74:0.0032948929 75:0.0029287937 76:0.00054914882 77:0 78:0 79:0 80:0 81:0.0031118433 82:0.010067728 83:0 84:0 85:0 86:0 87:0 88:0 89:0.019769357 90:0 91:0 92:0 93:0 94:0 95:0 96:0.0042101409 97:0.00054914882 98:0 98:0 99:0 100:0 101:0 102:0 103:0 104:0.013823208 105:0.016733358 106:0 107:0 108:0.011276828 109:0.3028374 110:0.35703892 111:0.0067297199 112:0 113:0.0040014551 114:0.072026191 115:0.071480538 116:0.005092761 117:0 118:0 119:0.018734085 120:0.028737723 121:0 122:0 123:0 124:0.010731175 125:0.030192797 126:0 127:0 128:0 129:0.0078210258 130:0.0070934885 131:0 132:0 133:0 134:0.014186977 135:0.011458712 136:0 137:0 138:0 139:0.0049108767 140:0.005092761 141:0 142:0 
0.7291315210050184 1:0 2:0 3:0 4:0.050605845 5:0.071988596 6:0 7:0 8:0 9:0 10:0 11:0.019244476 12:0.060584462 13:0.0042765502 14:0 15:0.00071275837 16:0.0035637919 17:0.011404134 18:0.011404134 19:0.043478261 20:0.014255167 21:0 22:0 23:0 24:0 25:0.014255167 26:0.042765502 27:0 28:0 29:0 30:0 31:0 32:0.016393443 33:0.040627227 34:0 35:0 36:0 37:0 38:0 39:0.005702067 40:0.027797577 41:0 42:0 43:0 44:0 45:0.00071275837 46:0.019244476 47:0.03064861 48:0 49:0 50:0 51:0 52:0.0014255167 53:0.014255167 54:0.017818959 55:0 56:0 57:0 58:0 59:0 60:0.024946543 61:0.014967926 62:0 63:0 64:0 65:0 66:0 67:0.03064861 68:0.019957234 69:0 70:0 71:0 72:0 73:0 74:0.012829651 75:0.019244476 76:0 77:0 78:0 79:0 80:0 81:0.014255167 82:0.0099786172 83:0 84:0 85:0 86:0 87:0.16892373 88:0.12188168 89:0.039201711 90:0 91:0 92:0 93:0 94:0 95:0 96:0 97:0 98:0 98:0 99:0.076774194 100:0.080645161 101:0 102:0 103:0.0032258065 104:0.13548387 105:0.070967742 106:0.0051612903 107:0 108:0 109:0.035483871 110:0.054193548 111:0 112:0 113:0 114:0.018709677 115:0.040645161 116:0 117:0 118:0 119:0.030967742 120:0.028387097 121:0 122:0 123:0 124:0.033548387 125:0.036129032 126:0 127:0 128:0 129:0.02 130:0.018709677 131:0 132:0 133:0 134:0.16 135:0.15096774 136:0 137:0 138:0 139:0 140:0 141:0 142:0 
0.5023000035814981 1:0 2:0 3:0 4:0 5:0 6:0 7:0 8:0 9:0 10:0.0001953125 11:0.001953125 12:0 13:0 14:0 15:0 16:0 17:0.029492187 18:0.17578125 19:0 20:0 21:0 22:0 23:0 24:0.013867187 25:0.2625 26:0 27:0 28:0 29:0 30:0.0056640625 31:0.009375 32:0.013476563 33:0.0109375 34:0 35:0 36:0 37:0.005078125 38:0.019921875 39:0.011914062 40:0.019335938 41:0.000390625 42:0 43:0 44:0.0080078125 45:0.011914062 46:0.0109375 47:0.012890625 48:0.001953125 49:0 50:0 51:0.00390625 52:0.0060546875 53:0.022265625 54:0.005078125 55:0.002734375 56:0 57:0 58:0.066796875 59:0.003125 60:0.030664062 61:0.0017578125 62:0.07578125 63:0 64:0 65:0.052734375 66:0.00234375 67:0.006640625 68:0.001171875 69:0.043554688 70:0 71:0 72:0 73:0.0056640625 74:0.007421875 75:0.001171875 76:0 77:0 78:0 79:0 80:0.00625 81:0.013671875 82:0 83:0 84:0 85:0 86:0 87:0.002734375 88:0.00625 89:0 90:0 91:0 92:0 93:0 94:0.0048828125 95:0.0017578125 96:0 97:0 98:0 98:0 99:0 100:0 101:0 102:0 103:0 104:0.21745535 105:0.13257227 106:0 107:0 108:0 109:0.0817529 110:0.061498803 111:0 112:0 113:0 114:0.045479654 115:0.039403425 116:0 117:0 118:0 119:0.050635242 120:0.02890812 121:0 122:0 123:0.00036825631 124:0.13938501 125:0.098324434 126:0 127:0 128:0.010127048 129:0.004787332 130:0.010311177 131:0 132:0 133:0.0034984349 134:0.0020254097 135:0.010863561 136:0 137:0 138:0.019517584 139:0.00055238446 140:0.041060578 141:0.0014730252 142:0 
0.46130038726112 1:0 2:0 3:0.0017953321 4:0.0053859964 5:0 6:0 7:0 8:0 9:0 10:0.17825083 11:0.071556809 12:0 13:0 14:0 15:0 16:0 17:0.064375481 18:0.018466273 19:0.0053859964 20:0 21:0 22:0 23:0 24:0.00076942806 25:0.0087201847 26:0.019492177 27:0 28:0 29:0 30:0 31:0.0066683765 32:0.020261606 33:0.014362657 34:0 35:0 36:0 37:0 38:0.0038471403 39:0.013849705 40:0.0082072326 41:0 42:0 43:0 44:0 45:0.0020518082 46:0.013849705 47:0.024621698 48:0 49:0 50:0 51:0.0010259041 52:0 53:0.055655296 54:0.12439087 55:0 56:0 57:0 58:0.0023082842 59:0.0041036163 60:0.010771993 61:0.05539882 62:0 63:0 64:0 65:0.0092331367 66:0.0020518082 67:0.0033341883 68:0.0056424724 69:0 70:0 71:0 72:0.0069248525 73:0.00076942806 74:0.0041036163 75:0.011028469 76:0 77:0 78:0 79:0.0051295204 80:0.00051295204 81:0 82:0.0030777122 83:0 84:0 85:0 86:0.013593229 87:0 88:0 89:0.0069248525 90:0 91:0 92:0.053859964 93:0.016670941 94:0 95:0.050782252 96:0.070787381 97:0 98:0 98:0 99:0 100:0.11310592 101:0 102:0 103:0 104:0.0058989484 105:0.23518851 106:0.00025647602 107:0 108:0 109:0.034367787 110:0.024878174 111:0.0017953321 112:0 113:0 114:0.013849705 115:0.02128751 116:0 117:0 118:0 119:0.26596563 120:0.010771993 121:0.00051295204 122:0 123:0 124:0.0071813285 125:0.020774558 126:0 127:0 128:0 129:0.0033341883 130:0.024108746 131:0.0015388561 132:0 133:0 134:0.013593229 135:0.027955886 136:0.012054373 137:0 138:0 139:0.05283406 140:0.10335984 141:0.0053859964 142:0 
0.8086961165973282 1:0 2:0.023619186 3:0.082485465 4:0 5:0 6:0 7:0 8:0 9:0.019258721 10:0.041061047 11:0.015988372 12:0 13:0 14:0 15:0 16:0 17:0.0050872093 18:0.045421512 19:0 20:0 21:0 22:0 23:0 24:0.0061773256 25:0.036700581 26:0 27:0 28:0 29:0 30:0 31:0.0087209302 32:0.037427326 33:0 34:0 35:0 36:0 37:0 38:0.0036337209 39:0.018895349 40:0.007630814 41:0 42:0 43:0 44:0 45:0.0021802326 46:0.065406977 47:0.096293605 48:0 49:0 50:0 51:0 52:0.0018168605 53:0.0094476744 54:0.20421512 55:0 56:0 57:0 58:0.0021802326 59:0.007630814 60:0.0047238372 61:0.007630814 62:0 63:0 64:0 65:0.003997093 66:0.013081395 67:0.0014534884 68:0.014898256 69:0.0025436047 70:0 71:0 72:0 73:0.0065406977 74:0.0029069767 75:0.0021802326 76:0.0043604651 77:0 78:0 79:0 80:0.0025436047 81:0.0018168605 82:0 83:0.007630814 84:0.0025436047 85:0 86:0.0018168605 87:0.034156977 88:0.011627907 89:0 90:0.011627907 91:0.0018168605 92:0 93:0.10356105 94:0.012718023 95:0.0025436047 96:0 97:0 98:0 98:0 99:0.020348837 100:0.13553779 101:0 102:0 103:0 104:0.030886628 105:0.046511628 106:0.014171512 107:0 108:0 109:0.028706395 110:0.030159884 111:0.015625 112:0 113:0 114:0.079215116 115:0.015625 116:0.0065406977 117:0 118:0 119:0.29287791 120:0.016351744 121:0.003997093 122:0 123:0 124:0.014898256 125:0.021438953 126:0.016715116 127:0 128:0 129:0.0054505814 130:0.007630814 131:0.010537791 132:0 133:0 134:0.046511628 135:0.12027616 136:0.019258721 137:0 138:0 139:0 140:0.00072674419 141:0 142:0 
0.2566712244918982 1:0 2:0 3:0.0053101617 4:0.0033791938 5:0 6:0 7:0 8:0 9:0 10:0.23268163 11:0.058170408 12:0 13:0 14:0 15:0 16:0 17:0.023171615 18:0.014965001 19:0.0050687907 20:0 21:0 22:0 23:0 24:0.0016895969 25:0.0089307265 26:0.014965001 27:0 28:0 29:0 30:0 31:0.015206372 32:0.015930485 33:0.011827178 34:0 35:0 36:0 37:0 38:0.0082066136 39:0.0086893555 40:0.0067583876 41:0 42:0 43:0 44:0.00096548395 45:0.0053101617 46:0.0038619358 47:0.030654115 48:0.0041033068 49:0 50:0 51:0.0019309679 52:0.0045860488 53:0.0028964518 54:0.14361574 55:0.063239199 56:0 57:0 58:0.0031378228 59:0.0031378228 60:0.0016895969 61:0.017620082 62:0.0050687907 63:0 64:0 65:0.0079652426 66:0.0043446778 67:0.0045860488 68:0.0041033068 69:0 70:0 71:0 72:0.0026550809 73:0.0024137099 74:0.0041033068 75:0.0067583876 76:0 77:0 78:0 79:0.00096548395 80:0.0031378228 81:0.00096548395 82:0.0031378228 83:0 84:0 85:0 86:0.016895969 87:0.0069997586 88:0.0045860488 89:0.0060342747 90:0 91:0 92:0.031136857 93:0.049239681 94:0.0094134685 95:0.092203717 96:0.011585807 97:0 98:0 98:0 99:0.086410813 100:0.058894521 101:0 102:0 103:0 104:0.069514844 105:0.13734009 106:0 107:0 108:0 109:0.04151581 110:0.017620082 111:0 112:0 113:0 114:0.023654357 115:0.018585566 116:0.00072411296 117:0 118:0 119:0.24257784 120:0.022688873 121:0.00072411296 122:0 123:0 124:0.0055515327 125:0.02196476 126:0 127:0 128:0 129:0 130:0.022447502 131:0 132:0 133:0 134:0.066377021 135:0.06348057 136:0 137:0 138:0 139:0.049481052 140:0.050446536 141:0 142:0 
0.4982915436339472 1:0 2:0 3:0.022208884 4:0.076830732 5:0 6:0 7:0 8:0 9:0.0027010804 10:0.014405762 11:0.027911164 12:0.00090036014 13:0 14:0 15:0 16:0.011704682 17:0.010504202 18:0.011704682 19:0.010504202 20:0 21:0 22:0 23:0.011404562 24:0.012004802 25:0.013505402 26:0.0096038415 27:0 28:0 29:0.0006002401 30:0.010204082 31:0.010804322 32:0.015906363 33:0.012004802 34:0 35:0 36:0.0033013205 37:0.0087034814 38:0.0078031212 39:0.0048019208 40:0.0090036014 41:0.0093037215 42:0 43:0.039915966 44:0.029711885 45:0.0057022809 46:0.0042016807 47:0.014705882 48:0.13985594 49:0 50:0.075330132 51:0.0039015606 52:0.0057022809 53:0.0033013205 54:0.0015006002 55:0.10534214 56:0 57:0 58:0 59:0.0024009604 60:0.0090036014 61:0 62:0 63:0 64:0 65:0 66:0.0078031212 67:0.013805522 68:0 69:0 70:0 71:0 72:0 73:0.0078031212 74:0.0042016807 75:0 76:0 77:0 78:0 79:0 80:0.014105642 81:0.0021008403 82:0 83:0 84:0 85:0 86:0 87:0.043217287 88:0.13805522 89:0 90:0 91:0 92:0 93:0 94:0 95:0 96:0 97:0 98:0 98:0 99:0.090936375 100:0.040516206 101:0 102:0 103:0 104:0.011404562 105:0.058823529 106:0 107:0 108:0 109:0.029411765 110:0.054321729 111:0 112:0 113:0 114:0.091236495 115:0.077430972 116:0 117:0 118:0 119:0.20858343 120:0.098439376 121:0 122:0 123:0.0042016807 124:0.0036014406 125:0.020708283 126:0.00090036014 127:0 128:0.0012004802 129:0.0081032413 130:0.0024009604 131:0.0069027611 132:0 133:0.050720288 134:0.017106843 135:0.098139256 136:0.024909964 137:0 138:0 139:0 140:0 141:0 142:0 
0.4654088144720328 1:0 2:0 3:0 4:0.0081168831 5:0.0045454545 6:0 7:0 8:0 9:0 10:0 11:0.10422078 12:0.06525974 13:0 14:0 15:0 16:0 17:0.0042207792 18:0.013311688 19:0.033766234 20:0.0081168831 21:0.00064935065 22:0 23:0 24:0.013636364 25:0.011038961 26:0.0074675325 27:0.0077922078 28:0.0019480519 29:0 30:0.00097402597 31:0.016883117 32:0.018181818 33:0.013636364 34:0.0097402597 35:0.0038961039 36:0 37:0.0038961039 38:0.0022727273 39:0.012662338 40:0.0094155844 41:0.0022727273 42:0.0045454545 43:0 44:0.11850649 45:0 46:0.0061688312 47:0.0061688312 48:0.0012987013 49:0.019805195 50:0 51:0.19642857 52:0 53:0.0064935065 54:0.0058441558 55:0.0032467532 56:0.015584416 57:0 58:0 59:0 60:0.0051948052 61:0.0016233766 62:0.0012987013 63:0 64:0 65:0 66:0 67:0.01038961 68:0.0061688312 69:0.0042207792 70:0 71:0 72:0 73:0 74:0.0077922078 75:0.0029220779 76:0.0051948052 77:0 78:0 79:0 80:0 81:0.0045454545 82:0.0025974026 83:0.018181818 84:0 85:0 86:0 87:0 88:0.00064935065 89:0.016233766 90:0.020454545 91:0 92:0 93:0 94:0 95:0.064285714 96:0.066233766 97:0 98:0 98:0 99:0.12402597 100:0.01461039 101:0 102:0 103:0 104:0.058441558 105:0.061038961 106:0 107:0 108:0 109:0.01461039 110:0.074675325 111:0 112:0 113:0 114:0.014935065 115:0.088636364 116:0 117:0 118:0 119:0.064285714 120:0.25032468 121:0 122:0 123:0.00032467532 124:0.012987013 125:0.012012987 126:0 127:0 128:0 129:0.0048701299 130:0.023701299 131:0 132:0 133:0 134:0.025 135:0.04512987 136:0 137:0 138:0 139:0.10357143 140:0.0068181818 141:0 142:0 
0.6533187063695084 1:0 2:0 3:0.019043918 4:0.045860863 5:0 6:0 7:0 8:0 9:0 10:0.014380101 11:0.041974349 12:0.0058297707 13:0 14:0 15:0 16:0.0050524679 17:0.014768752 18:0.015934707 19:0.016712009 20:0.0089389817 21:0 22:0 23:0.013214147 24:0.012048193 25:0.013214147 26:0.017489312 27:0.010104936 28:0 29:0.0027205597 30:0.0077730276 31:0.0066070735 32:0.010882239 33:0.015546055 34:0.012048193 35:0 36:0.057520404 37:0 38:0.0046638166 39:0.008161679 40:0.010882239 41:0.017100661 42:0.012436844 43:0.048581422 44:0 45:0.0027205597 46:0.017489312 47:0.010104936 48:0.057909056 49:0.10221531 50:0 51:0 52:0.0019432569 53:0.011659541 54:0.0066070735 55:0 56:0.026816945 57:0 58:0 59:0.0011659541 60:0.016712009 61:0.0046638166 62:0 63:0 64:0 65:0 66:0 67:0.027982899 68:0.0027205597 69:0 70:0 71:0 72:0 73:0 74:0.0089389817 75:0.0050524679 76:0 77:0 78:0 79:0 80:0 81:0.012825496 82:0.0077730276 83:0 84:0 85:0 86:0 87:0.03381267 88:0.1558492 89:0.015546055 90:0 91:0 92:0 93:0 94:0 95:0 96:0 97:0 98:0 98:0 99:0.094655955 100:0.00034928397 101:0 102:0 103:0 104:0.038071952 105:0.052043311 106:0 107:0 108:0 109:0.037722669 110:0.055885435 111:0 112:0 113:0 114:0.055885435 115:0.27907789 116:0 117:0 118:0 119:0.013971359 120:0.11596228 121:0 122:0 123:0.00034928397 124:0.018861334 125:0.01851205 126:0.0031435557 127:0 128:0 129:0.0094306671 130:0.00034928397 131:0.0087320992 132:0 133:0.075445337 134:0.020957038 135:0.063918966 136:0.036674817 137:0 138:0 139:0 140:0 141:0 142:0 
0.4047797664924478 1:0 2:0 3:0.0061689171 4:0.011225841 5:0 6:0 7:0 8:0 9:0.0014738328 10:0.015709117 11:0.049166005 12:2.6476039e-05 13:0 14:0 15:0 16:0.0042714677 17:0.040331833 18:0.032592004 19:0.0026652546 20:0 21:0 22:0 23:0.010855176 24:0.027429177 25:0.027367399 26:0.02203689 27:0 28:0 29:0 30:0.0034242344 31:0.057029388 32:0.033518666 33:0.037798959 34:0 35:0 36:0 37:0.0078810343 38:0.059235725 39:0.045176948 40:0.031938929 41:0.0021975113 42:0 43:0.0009707881 44:0.0051893037 45:0.0080575413 46:0.016944665 47:0.0053128585 48:0.060453623 49:0.02459624 50:0.0037419469 51:0.0010325655 52:0.00087370929 53:0.0012443738 54:0.001094343 55:0 56:0 57:0.0070514518 58:0.014508869 59:0.013599859 60:0.0050833995 61:0.0058070779 62:0 63:0 64:0.0026564293 65:0.023863737 66:0.033139176 67:0.010422734 68:0.0080663666 69:0 70:0 71:0 72:0.00060012355 73:0.020951372 74:0.0011649457 75:0.0030270938 76:0 77:0 78:0 79:0.00015003089 80:0.028911835 81:8.8253464e-06 82:0.008816521 83:0.00021180831 84:0 85:0 86:0 87:0.055220192 88:0 89:0.034057012 90:0.0026123025 91:0 92:0 93:0 94:0.027579207 95:0.0037507722 96:0.013926397 97:0.015779719 98:0 98:0 99:0.011755361 100:0.048248169 101:0 102:0 103:0 104:0.037004677 105:0.087873974 106:0 107:0 108:0 109:0.12309593 110:0.075112523 111:0 112:0 113:0 114:0.13218604 115:0.12045715 116:0 117:0 118:0 119:0.013970523 120:0.015806195 121:0 122:0 123:0 124:0.075492013 125:0.042229282 126:0 127:0 128:0 129:0.018780337 130:0.024472686 131:0 132:0 133:0 134:0.014932486 135:0.1184538 136:0 137:0 138:0 139:0.020545406 140:0.019583444 141:0 142:0 
0.6609080131042713 1:0 2:0 3:0 4:0 5:0 6:0 7:0 8:0 9:0 10:0 11:0 12:0 13:0 14:0 15:0 16:0 17:0 18:0 19:0 20:0 21:0 22:0 23:0.014629948 24:0.0036144578 25:0.090361446 26:4.302926e-05 27:0.0006454389 28:0 29:0 30:0.010714286 31:0.048967298 32:0.30348537 33:0.072504303 34:0.0098537005 35:0 36:0 37:0.0015060241 38:0.062908778 39:0.048967298 40:0.039672978 41:0.00077452668 42:0 43:0 44:0 45:0.042039587 46:0.013425129 47:0.003313253 48:0 49:0 50:0 51:0 52:0.023149742 53:0.023106713 54:0.00073149742 55:0 56:0 57:0 58:0 59:0.019922547 60:0.022246127 61:0.0034423408 62:0 63:0 64:0 65:0 66:0.019664372 67:0.023364888 68:0.0037435456 69:0 70:0 71:0 72:0 73:0.0073580034 74:0.0098537005 75:0.0030550775 76:0 77:0 78:0 79:0 80:0.0077452668 81:0.010068847 82:0.0017641997 83:0 84:0 85:0 86:0 87:0.010068847 88:0.0232358 89:0.0016781411 90:0 91:0 92:0 93:0 94:0.0037005164 95:0.014457831 96:0.0002151463 97:0 98:0 98:0 99:0 100:0 101:0 102:0 103:0 104:0 105:0.0013162364 106:0 107:0 108:0 109:0.24290931 110:0.30324389 111:0 112:0 113:0 114:0.12359885 115:0.066873302 116:0 117:0 118:0 119:0.0086192255 120:0.068741508 121:0 122:0 123:0 124:0.017790421 125:0.061693274 126:0 127:0 128:0 129:0.012100883 130:0.020932405 131:0 132:0 133:0 134:0.033203125 135:0.01171875 136:0 137:0 138:0 139:0.022758152 140:0.0045006793 141:0 142:0 
0.6922630578581993 1:0 2:0 3:0 4:0 5:0 6:0 7:0 8:0 9:0 10:0 11:0 12:0 13:0 14:0 15:0 16:0 17:0 18:0.00021280369 19:0 20:0 21:0 22:0 23:0 24:0.047987232 25:0.16584501 26:0.13924455 27:0 28:0 29:0 30:0 31:0.033800319 32:0.19216173 33:0.06288349 34:0 35:0 36:0 37:0 38:0.015463735 39:0.024472424 40:0.0069870544 41:0.00010640184 42:0 43:0 44:0 45:0.020500089 46:0.010923923 47:0.0082993439 48:0.0036176627 49:0 50:0 51:0.064373116 52:0.017059762 53:0.011384997 54:0.0083702784 55:0.0057456996 56:0 57:0.028763965 58:0.056286576 59:0.0083702784 60:0.011491399 61:0.0063841107 62:0.0013477567 63:0 64:0 65:0 66:0.0035467281 67:0.0047526157 68:0.0019507005 69:0 70:0 71:0 72:0 73:0.0023763079 74:0.0027309807 75:0.0015605604 76:0 77:0 78:0 79:0 80:0.0016314949 81:0.0087958858 82:0.0018088314 83:0 84:0 85:0 86:0 87:0.001134953 88:0.0059585033 89:0.0018797659 90:0.00021280369 91:0 92:0 93:0 94:0.0014186913 95:0.0056392977 96:0.002021635 97:0.00049654194 98:0 98:0 99:0 100:0 101:0 102:0 103:0 104:0.032900463 105:0.028374473 106:0 107:0 108:0 109:0.27880096 110:0.2902552 111:0 112:0 113:0 114:0.046582878 115:0.02565888 116:0 117:0 118:0 119:0.13564043 120:0.051909619 121:0 122:0 123:0 124:0.024440344 125:0.030080423 126:0 127:0 128:0 129:0.012846847 130:0.0011837204 131:0 132:0 133:0 134:0.013577969 135:0.0035859764 136:0 137:0 138:0 139:0.015980225 140:0.0081815966 141:0 142:0 
1.196245768891931 1:0 2:0 3:0 4:0 5:0 6:0 7:0 8:0 9:0 10:0 11:0 12:0 13:0 14:0 15:0 16:0 17:0 18:0 19:0 20:0 21:0 22:0 23:0 24:0 25:0 26:0 27:0 28:0 29:0 30:0 31:0 32:0.029848658 33:0.005930981 34:0 35:0 36:0.00029062883 37:0.0021205141 38:0.31758197 39:0.11744634 40:0.048255151 41:0.010258121 42:4.3056124e-05 43:0.00015069643 44:0.0037135907 45:0.0050483305 46:0.16374244 47:0.12988956 48:0.0026479516 49:0 50:0 51:0 52:0.0076962821 53:0.0086758089 54:0.009063314 55:0.00024757271 56:0 57:0 58:0 59:0.009041786 60:0.0080407311 61:0.003476782 62:0 63:0 64:0 65:0 66:0.045391918 67:0.034907752 68:0.00034444899 69:0 70:0 71:0 72:0.00072119007 73:0.0073625971 74:0.0076424619 75:0.0018837054 76:0 77:0 78:0 79:0.0010764031 80:0.0033153215 81:0.0044886009 82:0.0011194592 83:0 84:0 85:0 86:0 87:0.001754537 88:0.00055972961 89:0 90:0 91:0 92:0 93:0 94:0.0048222858 95:0.001399324 96:0 97:0 98:0 98:0 99:0 100:0 101:0 102:0 103:0 104:0 105:0 106:0 107:0 108:0 109:0.027946081 110:0.0076996493 111:0 112:0 113:0 114:0.33463448 115:0.26277466 116:0.0010080321 117:0 118:0 119:0.19563329 120:0.037747584 121:0 122:0 123:0 124:0.018080235 125:0.074723059 126:0 127:0 128:0 129:0.019828206 130:0.0064235236 131:0 132:0 133:0 134:0.0033243611 135:0.0014906006 136:0 137:0 138:0 139:0.0048149618 140:0.0038712722 141:0 142:0 
0.6233787682691827 1:0 2:0 3:0 4:0.011363636 5:0.0075757576 6:0 7:0 8:0 9:0 10:0 11:0.076101928 12:0.038567493 13:0 14:0 15:0 16:0.0020661157 17:0.0096418733 18:0.024449036 19:0.012741047 20:0.0037878788 21:0 22:0 23:0.0061983471 24:0.0096418733 25:0.0099862259 26:0.011019284 27:0.012396694 28:0 29:0.00034435262 30:0.01446281 31:0.0041322314 32:0.012396694 33:0.016528926 34:0.0096418733 35:0 36:0.012396694 37:0.0017217631 38:0.0034435262 39:0.012052342 40:0.0075757576 41:0.0068870523 42:0 43:0.12741047 44:0 45:0.0017217631 46:0.0041322314 47:0.0055096419 48:0.053374656 49:0 50:0.0034435262 51:0 52:0.0048209366 53:0.0092975207 54:0.007231405 55:0.22933884 56:0 57:0 58:0 59:0.0055096419 60:0.0065426997 61:0.0086088154 62:0 63:0 64:0 65:0 66:0.01584022 67:0.013429752 68:0.007231405 69:0 70:0 71:0 72:0 73:0.0075757576 74:0.004476584 75:0.0048209366 76:0 77:0 78:0 79:0 80:0.0065426997 81:0.020316804 82:0.0058539945 83:0 84:0 85:0 86:0 87:0.016184573 88:0.023415978 89:0.049931129 90:0 91:0 92:0 93:0 94:0.020316804 95:0 96:0 97:0 98:0 98:0 99:0.096703297 100:0.0065934066 101:0 102:0 103:0 104:0.026059655 105:0.05588697 106:0 107:0 108:0 109:0.02166405 110:0.060282575 111:0 112:0 113:0 114:0.058398744 115:0.089167975 116:0 117:0 118:0.00031397174 119:0.075353218 120:0.31742543 121:0 122:0 123:0.0059654631 124:0.0288854 125:0.011930926 126:0 127:0 128:0 129:0.013814757 130:0.016012559 131:0 132:0 133:0 134:0.074725275 135:0.032653061 136:0 137:0 138:0 139:0.0075353218 140:0.00062794349 141:0 142:0 
0.6290967146420215 1:0 2:0 3:0 4:0.09220702 5:0.003866746 6:0 7:0 8:0 9:0 10:0 11:0.097263534 12:0.004759072 13:0 14:0 15:0 16:0 17:0.0148721 18:0.01041047 19:0.012195122 20:0.00594884 21:0 22:0 23:0 24:0.018738846 25:0.008328376 26:0.00892326 27:0.005056514 28:0 29:0 30:0 31:0.013979774 32:0.012195122 33:0.006246282 34:0.00892326 35:0 36:0 37:0 38:0.010113028 39:0.003569304 40:0.006841166 41:0.003271862 42:0.001189768 43:0 44:0 45:0.1281975 46:0.003866746 47:0.006246282 48:0.007138608 49:0.012492564 50:0 51:0 52:0.16745985 53:0.003271862 54:0.007733492 55:0.001784652 56:0.046995836 57:0 58:0 59:0.007733492 60:0.00297442 61:0.007138608 62:0.000892326 63:0 64:0 65:0 66:0.010113028 67:0.003569304 68:0.012492564 69:0.002082094 70:0 71:0 72:0 73:0.002676978 74:0.002676978 75:0.005353956 76:0.001784652 77:0 78:0 79:0 80:0.003569304 81:0.004164188 82:0.00446163 83:0.000594884 84:0 85:0 86:0 87:0.0892326 88:0.038072576 89:0.030636526 90:0.002379536 91:0 92:0 93:0 94:0 95:0 96:0.033313504 97:0 98:0 98:0 99:0.17965497 100:0.000594884 101:0 102:0 103:0 104:0.01784652 105:0.055621654 106:0 107:0 108:0 109:0.015466984 110:0.054729328 111:0 112:0 113:0 114:0.006543724 115:0.1005354 116:0 117:0 118:0 119:0.011302796 120:0.29625223 121:0 122:0 123:0 124:0.022903034 125:0.019631172 126:0 127:0 128:0 129:0.007733492 130:0.009815586 131:0 132:0 133:0.02082094 134:0.14069007 135:0.039857228 136:0 137:0 138:0 139:0 140:0 141:0 142:0 
0.3920087831146073 1:0 2:0 3:0 4:0.056957462 5:0.0072098053 6:0 7:0 8:0 9:0 10:0 11:0.20764239 12:0.049026676 13:0 14:0 15:0 16:0.0072098053 17:0.023792358 18:0.017664023 19:0 20:0 21:0 22:0 23:0.018024513 24:0.01333814 25:0.019826965 26:0 27:0 28:0 29:0 30:0.012617159 31:0.010454218 32:0.026315789 33:0 34:0 35:0 36:0 37:0.00072098053 38:0.044340303 39:0.018024513 40:0.00072098053 41:0 42:0 43:0 44:0 45:0.065969719 46:0.019466474 47:0.00072098053 48:0 49:0 50:0 51:0 52:0.0072098053 53:0.0014419611 54:0.00072098053 55:0 56:0 57:0 58:0 59:0.0061283345 60:0.00072098053 61:0.00072098053 62:0 63:0 64:0 65:0 66:0.017664023 67:0.0028839221 68:0.0014419611 69:0 70:0 71:0 72:0 73:0.0097332372 74:0.0036049027 75:0.0014419611 76:0 77:0 78:0 79:0 80:0.0068493151 81:0.0014419611 82:0.00036049027 83:0 84:0 85:0 86:0 87:0.02739726 88:0.0028839221 89:0.0072098053 90:0 91:0 92:0 93:0 94:0.10310022 95:0.052992069 96:0.12400865 97:0 98:0 98:0 99:0.19466474 100:0.099495314 101:0 102:0 103:0 104:0.031362653 105:0.057678443 106:0 107:0 108:0 109:0.058399423 110:0.028478731 111:0 112:0 113:0 114:0.098413843 115:0.019826965 116:0.00036049027 117:0 118:0 119:0.030281182 120:0.012256669 121:0.00036049027 122:0 123:0 124:0.0025234319 125:0.024873828 126:0 127:0 128:0 129:0 130:0.019105984 131:0.0014419611 132:0 133:0 134:0.023792358 135:0.074260995 136:0 137:0 138:0 139:0.16041817 140:0.062004326 141:0 142:0 
0.2507393294209595 1:0 2:0 3:0 4:0 5:0 6:0 7:0 8:0 9:0 10:0.00088904694 11:0.002311522 12:0 13:0 14:0 15:0 16:0 17:0.047475107 18:0.18883357 19:0 20:0 21:0 22:0 23:0.00053342817 24:0.009601707 25:0.18918919 26:0.0019559033 27:0 28:0 29:0.00053342817 30:0.010312945 31:0.0074679943 32:0.0090682788 33:0.0069345661 34:0.0026671408 35:0 36:0.0049786629 37:0.0039118065 38:0.019736842 39:0.011024182 40:0.010135135 41:0.0094238976 42:0 43:0.00071123755 44:0.0039118065 45:0.010312945 46:0.017069701 47:0.038762447 48:0.0051564723 49:0 50:0 51:0.0085348506 52:0.066145092 53:0.010135135 54:0.13513514 55:0.0010668563 56:0 57:0 58:0 59:0.084992888 60:0.029694168 61:0.0026671408 62:0 63:0 64:0 65:0 66:0.0028449502 67:0.0040896159 68:0.0012446657 69:0 70:0 71:0 72:0 73:0.0049786629 74:0.0040896159 75:0.0016002845 76:0 77:0 78:0 79:0 80:0.009601707 81:0.0046230441 82:0.0046230441 83:0 84:0 85:0 86:0 87:0.0037339972 88:0.0028449502 89:0.00071123755 90:0 91:0 92:0 93:0 94:0.0016002845 95:0.0010668563 96:0.0010668563 97:0 98:0 98:0 99:0 100:0 101:0 102:0 103:0 104:0.20334928 105:0.16953748 106:0 107:0 108:0 109:0.0028708134 110:0.052791069 111:0 112:0 113:0 114:0.040988836 115:0.031259968 116:0.00015948963 117:0 118:0 119:0.29712919 120:0.018181818 121:0 122:0 123:0 124:0.013875598 125:0.03046252 126:0 127:0 128:0 129:0.00015948963 130:0.021052632 131:0 132:0 133:0 134:0 135:0.013556619 136:0.00015948963 137:0 138:0 139:0.045614035 140:0.058851675 141:0 142:0 
1.143069255768398 1:0 2:0 3:0 4:0 5:0.0036363636 6:0.0036363636 7:0 8:0 9:0 10:0 11:0 12:0.12681818 13:0.017272727 14:0 15:0.066818182 16:0.0095454545 17:0.0072727273 18:0.0027272727 19:0.035 20:0.032727273 21:0 22:0.084090909 23:0.011363636 24:0.010909091 25:0.013181818 26:0.016818182 27:0.035909091 28:0.00045454545 29:0 30:0 31:0 32:0.014545455 33:0.014545455 34:0.021818182 35:0 36:0 37:0 38:0 39:0.0086363636 40:0.014545455 41:0.019090909 42:0 43:0 44:0 45:0 46:0.0036363636 47:0.0068181818 48:0.014545455 49:0 50:0 51:0 52:0 53:0.0031818182 54:0.010454545 55:0.0081818182 56:0 57:0 58:0 59:0 60:0.0027272727 61:0.011818182 62:0.0027272727 63:0 64:0 65:0 66:0 67:0.0081818182 68:0.018636364 69:0.00045454545 70:0 71:0 72:0 73:0 74:0.012727273 75:0.026818182 76:0 77:0 78:0 79:0 80:0 81:0.0031818182 82:0.015909091 83:0.00090909091 84:0 85:0 86:0 87:0 88:0.0054545455 89:0.010909091 90:0 91:0 92:0 93:0 94:0.16863636 95:0.062272727 96:0.030454545 97:0 98:0 98:0 99:0.037760417 100:0.047309028 101:0 102:0 103:0.0013020833 104:0.21397569 105:0.15234375 106:0 107:0 108:0.00086805556 109:0.027777778 110:0.065972222 111:0 112:0 113:0 114:0.025173611 115:0.032986111 116:0 117:0 118:0 119:0.015190972 120:0.01953125 121:0 122:0 123:0 124:0.014756944 125:0.019965278 126:0 127:0 128:0 129:0.022135417 130:0.026041667 131:0 132:0 133:0 134:0.022569444 135:0.032118056 136:0 137:0 138:0 139:0.080729167 140:0.14149306 141:0 142:0 
1.21347581885601 1:0 2:0.00028376844 3:0.0053916005 4:0.0085130533 5:0.00085130533 6:0 7:0 8:0 9:0 10:0.0036889898 11:0.0031214529 12:0.002553916 13:0.0036889898 14:0.00028376844 15:0 16:0 17:0.00028376844 18:0.00085130533 19:0.0014188422 20:0.0093643587 21:0.0039727582 22:0 23:0 24:0 25:0 26:0.0048240636 27:0.005107832 28:0.0014188422 29:0.0022701476 30:0 31:0 32:0.00085130533 33:0.039160045 34:0.011918275 35:0.0034052213 36:0.0011350738 37:0.0034052213 38:0.0019863791 39:0.0031214529 40:0.013904654 41:0.011066969 42:0.0053916005 43:0.061293984 44:0.0048240636 45:0.011350738 46:0.0079455165 47:0.011350738 48:0.005107832 49:0.0036889898 50:0 51:0.00028376844 52:0.002553916 53:0.0085130533 54:0.0093643587 55:0.0073779796 56:0.0068104427 57:0 58:0 59:0 60:0.005107832 61:0.014472191 62:0.0048240636 63:0.0090805902 64:0 65:0 66:0 67:0.34477866 68:0.14727582 69:0.0085130533 70:0 71:0 72:0 73:0 74:0.087400681 75:0.075198638 76:0.0059591373 77:0 78:0 79:0 80:0 81:0.0014188422 82:0.00085130533 83:0.0014188422 84:0 85:0 86:0 87:0 88:0 89:0 90:0 91:0 92:0 93:0 94:0 95:0 96:0 97:0 98:0 98:0 99:0.0079699953 100:0.011720581 101:0 102:0 103:0.0014064698 104:0.01148617 105:0.0084388186 106:0 107:0 108:0.018049695 109:0.049460853 110:0.011720581 111:0 112:0 113:0.011720581 114:0.045475856 115:0.19432724 116:0 117:0 118:0.00070323488 119:0.012658228 120:0.022269105 121:0.016408814 122:0 123:0 124:0.28879512 125:0.14439756 126:0.00070323488 127:0 128:0 129:0.049460853 130:0.092827004 131:0 132:0 133:0 134:0 135:0 136:0 137:0 138:0 139:0 140:0 141:0 142:0 
0.5300543687858853 1:0 2:0 3:0 4:0 5:0 6:0 7:0 8:0 9:0 10:0.0030856872 11:0.0037977688 12:0 13:0 14:0 15:0 16:0 17:0.084975077 18:0.1618799 19:0 20:0 21:0 22:0 23:0.0018988844 24:0.061951104 25:0.15570852 26:0.0028483266 27:0 28:0 29:0 30:0.024922858 31:0.012580109 32:0.062663185 33:0.16235462 34:0.0030856872 35:0 36:0 37:0.006883456 38:0.029670069 39:0.027059103 40:0.0090197009 41:0.0009494422 42:0 43:0 44:0 45:0.014478994 46:0.018039402 47:0.0028483266 48:0 49:0 50:0 51:0.0016615239 52:0.0056966532 53:0.023973416 54:0.0033230477 55:0 56:0 57:0 58:0.0011868028 59:0.0045098505 60:0.032993117 61:0.0016615239 62:0 63:0 64:0 65:0.0011868028 66:0.0037977688 67:0.0064087349 68:0.0018988844 69:0 70:0 71:0 72:0.0004747211 73:0.006883456 74:0.0045098505 75:0.0033230477 76:0 77:0 78:0 79:0 80:0.014953715 81:0.0087823404 82:0.0059340138 83:0 84:0 85:0 86:0.0014241633 87:0.0030856872 88:0.002136245 89:0.0018988844 90:0 91:0 92:0 93:0 94:0.0037977688 95:0.002136245 96:0.0016615239 97:0 98:0 98:0 99:0 100:0 101:0 102:0 103:0 104:0.25986842 105:0.094620743 106:0 107:0 108:0 109:0.15673375 110:0.093266254 111:0.00019349845 112:0 113:0 114:0.058243034 115:0.020317337 116:0 117:0 118:0 119:0.030766254 120:0.012190402 121:0 122:0 123:0 124:0.003869969 125:0.035410217 126:0 127:0 128:0 129:0.00058049536 130:0.032314241 131:0 132:0 133:0 134:0 135:0.013544892 136:0 137:0 138:0 139:0.124613 140:0.063467492 141:0 142:0 
0.3766402507156082 1:0 2:0 3:0.052933673 4:0.086734694 5:0 6:0 7:0 8:0 9:0.0070153061 10:0.019132653 11:0.034438776 12:0.013392857 13:0.0070153061 14:0 15:0 16:0.03380102 17:0.015306122 18:0.017857143 19:0.03252551 20:0.017857143 21:0 22:0 23:0.0089285714 24:0.018494898 25:0.022959184 26:0.014668367 27:0 28:0 29:0 30:0 31:0.019132653 32:0.018494898 33:0.013392857 34:0 35:0 36:0 37:0.0006377551 38:0.0057397959 39:0.012117347 40:0.006377551 41:0 42:0 43:0 44:0.0006377551 45:0.011479592 46:0.026785714 47:0.011479592 48:0 49:0 50:0 51:0.0006377551 52:0.010204082 53:0.010841837 54:0.0095663265 55:0 56:0 57:0 58:0 59:0.015943878 60:0.015306122 61:0.013392857 62:0 63:0 64:0 65:0 66:0.014030612 67:0.0089285714 68:0.0095663265 69:0 70:0 71:0 72:0 73:0.012117347 74:0.0070153061 75:0.0089285714 76:0 77:0 78:0 79:0 80:0.021683673 81:0.0095663265 82:0.011479592 83:0 84:0 85:0 86:0 87:0.16326531 88:0.010841837 89:0.11734694 90:0 91:0 92:0 93:0 94:0 95:0 96:0 97:0 98:0 98:0 99:0.12181122 100:0.068239796 101:0 102:0 103:0 104:0.082270408 105:0.09247449 106:0 107:0 108:0 109:0.026785714 110:0.0625 111:0 112:0 113:0 114:0.006377551 115:0.051658163 116:0 117:0 118:0 119:0.0089285714 120:0.051658163 121:0 122:0 123:0 124:0 125:0.06505102 126:0 127:0 128:0 129:0 130:0.038265306 131:0 132:0 133:0 134:0.22193878 135:0.10204082 136:0 137:0 138:0 139:0 140:0 141:0 142:0 
0.2413643417940581 1:0 2:0 3:0.022276136 4:0.094177327 5:0 6:0 7:0 8:0 9:0 10:0.012792236 11:0.023820026 12:0.0017644464 13:0 14:0 15:0 16:0.0048522276 17:0.0074988972 18:0.010807234 19:0.01786502 20:0 21:0 22:0 23:0.0070577856 24:0.011468902 25:0.028672254 26:0.010145567 27:0 28:0 29:0 30:0.0070577856 31:0.021393913 32:0.019629466 33:0.0063961182 34:0.0017644464 35:0 36:0.0050727834 37:0.0024261138 38:0.0057344508 39:0.0072783414 40:0.0041905602 41:0.014115571 42:0 43:0.081605646 44:0 45:0.0081605646 46:0.012351125 47:0.015438906 48:0.13696515 49:0 50:0.065284517 51:0 52:0.0059550066 53:0.0013233348 54:0.0028672254 55:0.065284517 56:0 57:0 58:0 59:0.0081605646 60:0.0046316718 61:0.0035288928 62:0 63:0 64:0 65:0 66:0.010366123 67:0.006616674 68:0.003308337 69:0 70:0 71:0 72:0 73:0.0030877812 74:0.0017644464 75:0.0015438906 76:0 77:0 78:0 79:0 80:0.0030877812 81:0.002205558 82:0.0008822232 83:0 84:0 85:0 86:0 87:0.097926775 88:0.071680635 89:0.037053375 90:0 91:0 92:0 93:0 94:0.0006616674 95:0 96:0 97:0 98:0 98:0 99:0.096823996 100:0.046316718 101:0 102:0 103:0 104:0.043449493 105:0.031318924 106:0 107:0 108:0 109:0.051389502 110:0.040141156 111:0 112:0 113:0 114:0.05094839 115:0.14027349 116:0 117:0 118:0 119:0.0070577856 120:0.23797971 121:0 122:0 123:0 124:0.0072783414 125:0.027128363 126:0 127:0 128:0 129:0 130:0.0092633436 131:0 132:0 133:0 134:0.1636524 135:0.046978386 136:0 137:0 138:0 139:0 140:0 141:0 142:0 
0.5213863218110983 1:0 2:0 3:0 4:0 5:0 6:0 7:0 8:0 9:0 10:0 11:0.01927237 12:0.00039331367 13:0 14:0 15:0 16:0 17:0.002359882 18:0.40294985 19:0.0078662734 20:0 21:0 22:0 23:0 24:0.0013765978 25:0.033431662 26:0.0080629302 27:0.00019665683 28:0 29:0 30:0 31:0.009439528 32:0.015339233 33:0.010619469 34:0.00019665683 35:0 36:0 37:0 38:0.01927237 39:0.033824975 40:0.011602753 41:0 42:0 43:0 44:0 45:0.0084562439 46:0.032448378 47:0.0057030482 48:0 49:0 50:0 51:0 52:0.0066863324 53:0.062930187 54:0.014552606 55:0 56:0 57:0 58:0.00019665683 59:0.054080629 60:0.10717797 61:0.01179941 62:0 63:0 64:0 65:0.0027531957 66:0.011996067 67:0.0088495575 68:0.00098328417 69:0 70:0 71:0 72:0.0096361849 73:0.002359882 74:0.004719764 75:0.0021632252 76:0 77:0 78:0 79:0.003539823 80:0.001179941 81:0.0025565388 82:0.008259587 83:0.00098328417 84:0 85:0 86:0.001179941 87:0.001179941 88:0 89:0.00098328417 90:0.0021632252 91:0 92:0.00098328417 93:0.025565388 94:0.0015732547 95:0 96:0 97:0.018485742 98:0.0076696165 98:0 99:0.003776824 100:0.0025751073 101:0 102:0 103:0 104:0.15811159 105:0.22592275 106:0 107:0 108:0.0039484979 109:0.029184549 110:0.023004292 111:0 112:0 113:0.0053218884 114:0.029527897 115:0.051845494 116:0.00051502146 117:0 118:0.049785408 119:0.012703863 120:0.017854077 121:0.059227468 122:0 123:0.040686695 124:0.025579399 125:0.008583691 126:0.041716738 127:0 128:0 129:0.0080686695 130:0.019399142 131:0 132:0 133:0 134:0.008583691 135:0.0044635193 136:0 137:0 138:0 139:0.08806867 140:0.081545064 141:0 142:0 
0.8262296181072417 1:0 2:0.0058224163 3:0.02503639 4:0.014556041 5:0 6:0 7:0 8:0 9:0.018049491 10:0.15196507 11:0.033770015 12:0 13:0 14:0 15:0 16:0 17:0.0090247453 18:0.016885007 19:0.0029112082 20:0 21:0 22:0 23:0 24:0.0069868996 25:0.015429403 26:0.0090247453 27:0 28:0 29:0 30:0 31:0.019505095 32:0.01426492 33:0.011644833 34:0 35:0 36:0 37:0.0011644833 38:0.0087336245 39:0.0090247453 40:0.0069868996 41:0.00058224163 42:0 43:0.022707424 44:0.038136827 45:0.0058224163 46:0.003202329 47:0.02503639 48:0.037845706 49:0 50:0 51:0.0014556041 52:0.0023289665 53:0.0043668122 54:0.041921397 55:0.21077147 56:0 57:0 58:0.0052401747 59:0.004657933 60:0.0055312955 61:0.0037845706 62:0 63:0 64:0.00029112082 65:0.012809316 66:0.0014556041 67:0.0034934498 68:0.0096069869 69:0.00058224163 70:0 71:0.00029112082 72:0.004657933 73:0.00087336245 74:0 75:0.0069868996 76:0.0055312955 77:0 78:0.00029112082 79:0.0034934498 80:0 81:0 82:0 83:0.0017467249 84:0.0061135371 85:0.030858806 86:0.011935953 87:0 88:0 89:0 90:0.018922853 91:0.019796215 92:0.038136827 93:0.0049490539 94:0 95:0 96:0 97:0.022707424 98:0.00029112082 98:0 99:0.020746888 100:0.18976487 101:0 102:0 103:0 104:0.022959889 105:0.041217151 106:0 107:0 108:0 109:0.056984786 110:0.0055325035 111:0 112:0 113:0 114:0.044536653 115:0.011341632 116:0.04868603 117:0 118:0 119:0.27745505 120:0.0094052559 121:0.012724758 122:0 123:0 124:0.021023513 125:0.013001383 126:0.0060857538 127:0 128:0 129:0.0091286307 130:0.0033195021 131:0.011894882 132:0 133:0 134:0.12890733 135:0 136:0.065283541 137:0 138:0 139:0 140:0 141:0 142:0 
0.4014851539729187 1:0 2:0 3:0 4:0 5:0 6:0 7:0 8:0 9:0 10:0 11:0.014235764 12:0.0054945055 13:0 14:0 15:0 16:0 17:0 18:0.27897103 19:0.061438561 20:0 21:0 22:0 23:0 24:0 25:0.016483516 26:0.03971029 27:0.0004995005 28:0 29:0 30:0 31:0 32:0.034965035 33:0.0064935065 34:0.0012487512 35:0 36:0 37:0 38:0.0072427572 39:0.054195804 40:0.00074925075 41:0 42:0 43:0 44:0 45:0.0067432567 46:0.041958042 47:0.0017482517 48:0 49:0 50:0 51:0.099400599 52:0.0012487512 53:0.014985015 54:0.0024975025 55:0 56:0 57:0.022477522 58:0.11913087 59:0.00024975025 60:0.043456543 61:0.0037462537 62:0 63:0 64:0 65:0 66:0.0034965035 67:0.0062437562 68:0.0014985015 69:0 70:0 71:0 72:0 73:0.0097402597 74:0.0082417582 75:0.0034965035 76:0 77:0 78:0 79:0 80:0.0044955045 81:0.0034965035 82:0.011238761 83:0.0012487512 84:0 85:0 86:0 87:0.0024975025 88:0.00074925075 89:0.000999001 90:0.0032467532 91:0 92:0 93:0.008991009 94:0.021728272 95:0 96:0 97:0.024225774 98:0.004995005 98:0 99:0.0024864376 100:0.0024864376 101:0 102:0 103:0 104:0.099457505 105:0.24254069 106:0 107:0 108:0.0013562387 109:0.029385172 110:0.036844485 111:0.0013562387 112:0 113:0 114:0.032549729 115:0.060126582 116:0 117:0 118:0 119:0.15845389 120:0.021473779 121:0.0015822785 122:0 123:0 124:0.074367089 125:0.038200723 126:0.0033905967 127:0 128:0 129:0.014014467 130:0.008363472 131:0.011528029 132:0 133:0 134:0.0088155515 135:0.00022603978 136:0.0056509946 137:0 138:0 139:0.10375226 140:0.0081374322 141:0.033453888 142:0 
0.8985264551958911 1:0 2:0 3:0.00010026671 4:0.0080213368 5:0 6:0 7:0 8:0 9:0 10:0.01656406 11:0.043946899 12:0.00026069344 13:0 14:0 15:0 16:0 17:0.043425512 18:0.044388072 19:0.0031483747 20:0 21:0 22:0 23:0 24:0.029638839 25:0.058154691 26:0 27:0 28:0 29:0 30:0.0020253875 31:0.040638097 32:0.064351174 33:0.0005514669 34:0 35:0 36:0 37:0.0029979746 38:0.068141256 39:0.025928971 40:0.061794373 41:0.0075300299 42:0 43:0.0006918403 44:0.011991898 45:0.034782522 46:0.0091242706 47:0.017346141 48:0.071640564 49:0.0048729621 50:0.011330138 51:0.022660276 52:0.001584214 53:0.00020053342 54:0 55:0.013385606 56:0.021797983 57:0.028104759 58:0.011781338 59:0.0015340807 60:3.0080013e-05 61:0 62:0 63:0 64:0.0075500832 65:0 66:0 67:0 68:0 69:0 70:0 71:0 72:0.0017346141 73:0.00036096015 74:0 75:0 76:0 77:0 78:0 79:0.0026570678 80:0.0011129605 81:0.00022058676 82:0.010558085 83:0 84:0 85:0 86:0.021457076 87:0.0055648024 88:0 89:0.044538472 90:0 91:0 92:0 93:0.038442256 94:0.012904326 95:0 96:0.068432029 97:0 98:0 98:0 99:0.010146991 100:0.033138147 101:0.00033088014 102:0 103:0 104:0.039114043 105:0.11506608 106:0.0021958409 107:0 108:0 109:0.11149658 110:0.043626045 111:0.00010026671 112:0 113:0 114:0.2134578 115:0.048288447 116:0 117:0 118:0.00021056009 119:0.13216155 120:0.016152967 121:0 122:0 123:0.0042312551 124:0.010297391 125:0.012001925 126:0 127:0 128:0 129:0 130:0.0065875228 131:0 132:0 133:0 134:0.0063970161 135:0.11772314 136:0 137:0 138:0 139:0.039464977 140:0.037810576 141:0 142:0 
